{"learner":{"attributes":{"best_iteration":"9","best_score":"0.6743862936438705"},"feature_names":["open_x","high_x","low_x","close_x","volume_x","spike_magnitude_x","price_change","rolling_std_30","open_smoothed","high_smoothed","low_smoothed","close_smoothed","next_5m_logret","open_y","high_y","low_y","close_y","volume_y","sma_10","sma_20","sma_50","sma_100","sma_200","ema_10","ema_20","ema_50","ema_100","ema_200","macd_12_26","macd_signal_12_26","macd_hist_12_26","rsi_14","rsi_28","atr_14","atr_28","bb_ma_20","bb_upper_20","bb_lower_20","bb_ma_50","bb_upper_50","bb_lower_50","vwap_10","vwap_30","vwap_60","vwap_120","vvr_30","vol_of_vol","body_ratio","upper_wick_ratio","lower_wick_ratio","vol_price_corr_60","sma_10_x_rsi_14","ema_50_x_atr_14","vwap_60_x_vol_of_vol","spike_magnitude_y"],"feature_types":["float","float","float","float","float","float","float","float","float","float","float","float","float","float","float","float","float","float","float","float","float","float","float","float","float","float","float","float","float","float","float","float","float","float","float","float","float","float","float","float","float","float","float","float","float","float","float","float","float","float","float","float","float","float","float"],"gradient_booster":{"model":{"gbtree_model_param":{"num_parallel_tree":"1","num_trees":"30"},"iteration_indptr":[0,3,6,9,12,15,18,21,24,27,30],"tree_info":[0,1,2,0,1,2,0,1,2,0,1,2,0,1,2,0,1,2,0,1,2,0,1,2,0,1,2,0,1,2],"trees":[{"base_weights":[-5.7943906E-3,1.4903744E0,-3.7494946E-2,7.497944E-2,6.614173E-1,-2.837838E-2,7.733711E-1,4.855491E-1,1E0,-1.463415E-1,6.3829786E-1,1.0578035E0,1.1999999E-2,-2.4000002E-2,1.1999999E-2,4.484536E-2,2.8301869E-3,6.1983474E-2,2.7049178E-2],"categories":[],"categories_nodes":[],"categories_segments":[],"categories_sizes":[],"default_left":[0,0,0,0,0,0,0,0,0,0,0,0,0,0,0,0,0,0,0],"id":0,"left_children":[1,3,-1,-1,5,-1,7,9,11,13,15,17,-1,-1,-1,-1,-1,-1,-1],"loss_changes":[1.2361906E4,2.717871E1,0E0,0E0,6.2635612E0,0E0,2.0728703E0,1.9487476E0,6.6867065E-1,7.02439E-1,2.3059916E0,1.1360931E0,0E0,0E0,0E0,0E0,0E0,0E0,0E0],"parents":[2147483647,0,0,1,1,4,4,6,6,7,7,8,8,9,9,10,10,11,11],"right_children":[2,4,-1,-1,6,-1,8,10,12,14,16,18,-1,-1,-1,-1,-1,-1,-1],"split_conditions":[-4.9510685E-4,-5.090615E-4,-3.7494946E-2,7.497944E-2,1.6363241E1,-2.837838E-2,2.9771677E1,-3.236633E1,1.2372948E2,2.6311064E1,5.7280853E1,2.3707521E-1,1.1999999E-2,-2.4000002E-2,1.1999999E-2,4.484536E-2,2.8301869E-3,6.1983474E-2,2.7049178E-2],"split_indices":[12,12,0,0,7,0,7,28,33,7,32,48,0,0,0,0,0,0,0],"split_type":[0,0,0,0,0,0,0,0,0,0,0,0,0,0,0,0,0,0,0],"sum_hessian":[1.1101777E4,3.6871108E3,7.414666E3,3.6457776E3,4.1333332E1,3.111111E0,3.822222E1,1.8222221E1,1.9999998E1,3.5555553E0,1.4666666E1,1.8222221E1,1.7777777E0,1.7777777E0,1.7777777E0,9.777777E0,4.8888884E0,1.2444444E1,5.7777777E0],"tree_param":{"num_deleted":"0","num_feature":"55","num_nodes":"19","size_leaf_vector":"1"}},{"base_weights":[1.0346943E-2,-3.7489813E-2,3.8321602E-1,1.4842764E0,-7.3769325E-1,9.448815E-2,7.497996E-2,3.1948048E-1,-3.74898E-2,5.5045867E-1,-8.54093E-2,4.3384612E-1,-2.6086962E-1,-8.1081115E-2,7.7777773E-1,4.285714E-2,-1.5613388E-1,4.951456E-1,-2.4000002E-2,2.142857E-2,-4.7368425E-1,2.142857E-2,-2.4000002E-2,6.122449E-2,3.658535E-3,-3.2307696E-2,-2.1407303E-9,2.7272725E-2,-2.1428574E-2,-1.2772424E-9,-3.0000001E-2],"categories":[],"categories_nodes":[],"categories_segments":[],"categories_sizes":[],"default_left":[0,0,0,0,0,0,0,0,0,0,0,0,0,0,0,0,0,0,0,0,0,0,0,0,0,0,0,0,0,0,0],"id":1,"left_children":[1,-1,3,5,7,9,-1,11,-1,13,15,17,19,21,23,-1,25,27,-1,-1,29,-1,-1,-1,-1,-1,-1,-1,-1,-1,-1],"loss_changes":[3.1687314E3,0E0,9.258195E3,8.044336E1,4.7803467E1,3.51953E0,0E0,2.9524283E0,0E0,1.8017466E0,2.2151525E0,2.260553E0,1.3278849E0,1.0415444E0,2.7432108E0,0E0,2.2867599E0,1.829278E0,0E0,0E0,3.7894738E-1,0E0,0E0,0E0,0E0,0E0,0E0,0E0,0E0,0E0,0E0],"parents":[2147483647,0,0,2,2,3,3,4,4,5,5,7,7,9,9,10,10,11,11,12,12,13,13,14,14,16,16,17,17,20,20],"right_children":[2,-1,4,6,8,10,-1,12,-1,14,16,18,20,22,24,-1,26,28,-1,-1,30,-1,-1,-1,-1,-1,-1,-1,-1,-1,-1],"split_conditions":[-5.090615E-4,-3.7489813E-2,4.936283E-4,-4.9510685E-4,5.0660834E-4,3.9927895E1,7.497996E-2,5.359061E-1,-3.74898E-2,1.224E1,0E0,6.0018528E1,4.5103233E1,6.0104E0,4.0395725E-1,4.285714E-2,2.0836973E-1,1.4347197E2,-2.4000002E-2,2.142857E-2,9.550214E4,2.142857E-2,-2.4000002E-2,6.122449E-2,3.658535E-3,-3.2307696E-2,-2.1407303E-9,2.7272725E-2,-2.1428574E-2,-1.2772424E-9,-3.0000001E-2],"split_indices":[12,0,12,12,12,34,0,50,0,6,50,32,32,4,50,0,50,33,0,0,1,0,0,0,0,0,0,0,0,0,0],"split_type":[0,0,0,0,0,0,0,0,0,0,0,0,0,0,0,0,0,0,0,0,0,0,0,0,0,0,0,0,0,0,0],"sum_hessian":[1.1177777E4,3.678222E3,7.499555E3,3.7831108E3,3.7164443E3,4.1333332E1,3.7417776E3,4.1777775E1,3.6746665E3,1.1111111E1,3.0222221E1,3.511111E1,6.666666E0,3.111111E0,7.9999995E0,1.3333333E0,2.8888887E1,3.3333332E1,1.7777777E0,1.3333333E0,5.333333E0,1.3333333E0,1.7777777E0,4.444444E0,3.5555553E0,6.222222E0,2.2666666E1,3.1999998E1,1.3333333E0,1.3333333E0,3.9999998E0],"tree_param":{"num_deleted":"0","num_feature":"55","num_nodes":"31","size_leaf_vector":"1"}},{"base_weights":[-1.0279252E-2,-3.749497E-2,1.487085E0,3.660477E-1,7.497938E-2,1.7241375E-1,7.4399996E-1,5.384615E-1,-1.17647104E-1,1.0434783E0,3.230769E-1,1.7647055E-1,5.8536585E-2,5.660377E-1,-4.40367E-1,2.0689655E-2,6.122449E-2,-2.5862072E-2,7.9999995E-1,-1.2244901E-2,3E-2,-1.6255813E-9,5.1724136E-2,3.658535E-3,-3.311689E-2,5.1724136E-2,1.1999999E-2],"categories":[],"categories_nodes":[],"categories_segments":[],"categories_sizes":[],"default_left":[0,0,0,0,0,0,0,0,0,0,0,0,0,0,0,0,0,0,0,0,0,0,0,0,0,0,0],"id":2,"left_children":[1,-1,3,5,-1,7,9,11,13,15,17,19,-1,21,23,-1,-1,-1,25,-1,-1,-1,-1,-1,-1,-1,-1],"loss_changes":[1.2319376E4,0E0,5.099951E1,2.937336E0,0E0,3.1424556E0,1.4136734E0,2.768789E0,4.000122E0,3.671627E-1,3.3082225E0,1.8324127E0,0E0,1.5614834E0,1.4290133E0,0E0,0E0,0E0,4.0827584E-1,0E0,0E0,0E0,0E0,0E0,0E0,0E0,0E0],"parents":[2147483647,0,0,2,2,3,3,5,5,6,6,7,7,8,8,9,9,10,10,11,11,13,13,14,14,18,18],"right_children":[2,-1,4,6,-1,8,10,12,14,16,18,20,-1,22,24,-1,-1,-1,26,-1,-1,-1,-1,-1,-1,-1,-1],"split_conditions":[4.936283E-4,-3.749497E-2,5.0660834E-4,1.978398E1,7.497938E-2,1.0653465E6,3.19E1,9.791587E0,1.6583748E-4,3.98E0,5.631E1,1.6373855E4,5.8536585E-2,2.6352483E-1,3.9519418E6,2.0689655E-2,6.122449E-2,-2.5862072E-2,9.6960956E-1,-1.2244901E-2,3E-2,-1.6255813E-9,5.1724136E-2,3.658535E-3,-3.311689E-2,5.1724136E-2,1.1999999E-2],"split_indices":[12,0,12,4,0,53,6,46,49,6,6,45,0,50,51,0,0,0,47,0,0,0,0,0,0,0,0],"split_type":[0,0,0,0,0,0,0,0,0,0,0,0,0,0,0,0,0,0,0,0,0,0,0,0,0,0,0],"sum_hessian":[1.1121777E4,7.4448887E3,3.6768887E3,4.0888885E1,3.6359998E3,2.7999998E1,1.2888888E1,1.1999999E1,1.5999999E1,6.666666E0,6.222222E0,8.444444E0,3.5555553E0,4.8888884E0,1.1111111E1,2.222222E0,4.444444E0,2.222222E0,3.9999998E0,4.444444E0,3.9999998E0,2.6666665E0,2.222222E0,3.5555553E0,7.5555553E0,2.222222E0,1.7777777E0],"tree_param":{"num_deleted":"0","num_feature":"55","num_nodes":"27","size_leaf_vector":"1"}},{"base_weights":[-8.835289E-3,1.3839889E0,-3.6793005E-2,6.966262E-2,6.1334294E-1,2.2609524E-1,8.4569246E-1,5.0983614E-1,-3.54281E-1,6.439934E-2,5.959728E-1,-7.934923E-2,8.255779E-1,1.1963074E-2,-3.052164E-2,-1.915142E-2,1.0026846E0,1.9381149E-2,-2.623944E-2,7.6722554E-3,5.889939E-2,2.436754E-2,-2.2009369E-2,-6.575308E-4,5.6465287E-2],"categories":[],"categories_nodes":[],"categories_segments":[],"categories_sizes":[],"default_left":[0,0,0,0,0,0,0,0,0,0,0,0,0,0,0,0,0,0,0,0,0,0,0,0,0],"id":3,"left_children":[1,3,-1,-1,5,7,9,11,13,-1,15,17,19,-1,-1,21,23,-1,-1,-1,-1,-1,-1,-1,-1],"loss_changes":[1.1252953E4,2.6353027E1,0E0,0E0,4.0426483E0,3.3112166E0,2.4403362E0,2.5170655E0,1.1848153E0,0E0,5.129011E0,1.3496252E0,1.8723674E0,0E0,0E0,2.1574328E0,1.5987501E0,0E0,0E0,0E0,0E0,0E0,0E0,0E0,0E0],"parents":[2147483647,0,0,1,1,4,4,5,5,6,6,7,7,8,8,10,10,11,11,12,12,15,15,16,16],"right_children":[2,4,-1,-1,6,8,10,12,14,-1,16,18,20,-1,-1,22,24,-1,-1,-1,-1,-1,-1,-1,-1],"split_conditions":[-4.9510685E-4,-5.090615E-4,-3.6793005E-2,6.966262E-2,8.9195E0,5.597206E6,-3.3741886E1,2.510055E-1,8.395655E0,6.439934E-2,2.542079E1,1.1657655E4,-3.3741886E1,1.1963074E-2,-3.052164E-2,1.2529833E-2,9.5748E4,1.9381149E-2,-2.623944E-2,7.6722554E-3,5.889939E-2,2.436754E-2,-2.2009369E-2,-6.575308E-4,5.6465287E-2],"split_indices":[12,12,0,0,4,51,28,50,46,0,29,45,28,0,0,49,0,0,0,0,0,0,0,0,0],"split_type":[0,0,0,0,0,0,0,0,0,0,0,0,0,0,0,0,0,0,0,0,0,0,0,0,0],"sum_hessian":[1.11107295E4,3.8102332E3,7.300496E3,3.7641782E3,4.6054943E1,1.8010555E1,2.804439E1,1.2178254E1,5.8323E0,8.619724E0,1.9424665E1,4.510392E0,7.667862E0,1.7781036E0,4.054197E0,8.110696E0,1.1313969E1,2.265341E0,2.2450511E0,3.1312366E0,4.5366254E0,3.61018E0,4.500516E0,1.3532761E0,9.960693E0],"tree_param":{"num_deleted":"0","num_feature":"55","num_nodes":"25","size_leaf_vector":"1"}},{"base_weights":[1.0070362E-2,3.680705E-1,-3.678761E-2,-7.254139E-1,1.3823357E0,-3.6787517E-2,1.2518808E-1,6.966289E-2,3.749201E-1,7.167789E-1,-1.0992981E-1,6.18966E-1,-1.117215E-1,-2.4112994E-3,9.0866125E-1,-5.0280523E-1,9.232875E-2,7.59084E-1,-2.7389959E-2,3.837888E-1,-3.8554263E-1,-2.520888E-4,6.321283E-5,1.2731301E-2,5.5757888E-2,-2.8563732E-2,1.7288918E-4,2.0905053E-2,-2.197227E-2,2.009439E-2,5.5257615E-2,-1.0480679E-2,3.9905205E-2,-3.255361E-2,1.3741943E-2],"categories":[],"categories_nodes":[],"categories_segments":[],"categories_sizes":[],"default_left":[0,0,0,0,0,0,0,0,0,0,0,0,0,0,0,0,0,0,0,0,0,0,0,0,0,0,0,0,0,0,0,0,0,0,0],"id":4,"left_children":[1,3,-1,5,7,-1,9,-1,11,13,15,17,19,21,23,25,27,29,-1,31,33,-1,-1,-1,-1,-1,-1,-1,-1,-1,-1,-1,-1,-1,-1],"loss_changes":[2.9635718E3,8.3185625E3,0E0,3.1827148E1,4.2291016E1,0E0,6.225298E0,0E0,5.187946E0,1.7548752E0,2.6280832E0,5.133728E0,2.2161016E0,4.1879124E-5,1.0704441E0,3.9009142E-1,4.0456066E0,2.7925043E0,0E0,1.6243083E0,1.9879115E0,0E0,0E0,0E0,0E0,0E0,0E0,0E0,0E0,0E0,0E0,0E0,0E0,0E0,0E0],"parents":[2147483647,0,0,1,1,3,3,4,4,6,6,8,8,9,9,10,10,11,11,12,12,13,13,14,14,15,15,16,16,17,17,19,19,20,20],"right_children":[2,4,-1,6,8,-1,10,-1,12,14,16,18,20,22,24,26,28,30,-1,32,34,-1,-1,-1,-1,-1,-1,-1,-1,-1,-1,-1,-1,-1,-1],"split_conditions":[5.0660834E-4,-4.9510685E-4,-3.678761E-2,-5.090615E-4,4.936283E-4,-3.6787517E-2,4.18668E6,6.966289E-2,1.999431E1,1.2610721E4,9.7496E4,6.251748E1,-1.9534756E1,2.4273144E1,6.2462406E0,8.496593E1,1.0206497E5,1.1284943E1,-2.7389959E-2,9.714067E1,6.121907E4,-2.520888E-4,6.321283E-5,1.2731301E-2,5.5757888E-2,-2.8563732E-2,1.7288918E-4,2.0905053E-2,-2.197227E-2,2.009439E-2,5.5257615E-2,-1.0480679E-2,3.9905205E-2,-3.255361E-2,1.3741943E-2],"split_indices":[12,12,0,12,12,0,52,0,4,45,2,31,29,7,46,29,23,46,0,33,45,0,0,0,0,0,0,0,0,0,0,0,0,0,0],"split_type":[0,0,0,0,0,0,0,0,0,0,0,0,0,0,0,0,0,0,0,0,0,0,0,0,0,0,0,0,0,0,0,0,0,0,0],"sum_hessian":[1.1097313E4,7.498491E3,3.5988225E3,3.608468E3,3.8900232E3,3.5652783E3,4.318969E1,3.847922E3,4.2100967E1,1.1700624E1,3.1489067E1,2.7858364E1,1.4242603E1,2.6722507E0,9.028374E0,1.0196672E1,2.1292395E1,2.5183468E1,2.6748962E0,4.926301E0,9.316302E0,1.3409045E0,1.3313464E0,2.7023401E0,6.326033E0,8.8688E0,1.3278726E0,1.3336207E1,7.9561863E0,1.3456041E1,1.1727426E1,2.2285445E0,2.6977563E0,6.65466E0,2.6616426E0],"tree_param":{"num_deleted":"0","num_feature":"55","num_nodes":"35","size_leaf_vector":"1"}},{"base_weights":[-6.327301E-3,-3.6792908E-2,1.3823758E0,3.2509094E-1,6.966281E-2,1.9976144E-1,5.795419E-2,1.1769504E-1,4.966747E-2,2.7576604E-1,-5.082894E-1,2.31053E-2,-9.879936E-3,-1.4487431E-4,-3.1130178E-2],"categories":[],"categories_nodes":[],"categories_segments":[],"categories_sizes":[],"default_left":[0,0,0,0,0,0,0,0,0,0,0,0,0,0,0],"id":5,"left_children":[1,-1,3,5,-1,7,-1,9,-1,11,13,-1,-1,-1,-1],"loss_changes":[1.1301278E4,0E0,4.3742676E1,3.9951758E0,0E0,2.2513022E0,0E0,3.513328E0,0E0,2.5492043E0,4.1557443E-1,0E0,0E0,0E0,0E0],"parents":[2147483647,0,0,2,2,3,3,5,5,7,7,9,9,10,10],"right_children":[2,-1,4,6,-1,8,-1,10,-1,12,14,-1,-1,-1,-1],"split_conditions":[4.936283E-4,-3.6792908E-2,5.0660834E-4,6.251748E1,6.966281E-2,4.387075E1,5.795419E-2,1.0150001E5,4.966747E-2,4.0227238E1,2.208337E1,2.31053E-2,-9.879936E-3,-1.4487431E-4,-3.1130178E-2],"split_indices":[12,0,12,31,0,4,0,0,0,7,7,0,0,0,0],"split_type":[0,0,0,0,0,0,0,0,0,0,0,0,0,0,0],"sum_hessian":[1.1153121E4,7.3122363E3,3.840885E3,3.9437794E1,3.801447E3,3.5363075E1,4.0747156E0,3.3089535E1,2.2735424E0,2.686513E1,6.224404E0,1.9293882E1,7.571247E0,1.3373259E0,4.887078E0],"tree_param":{"num_deleted":"0","num_feature":"55","num_nodes":"15","size_leaf_vector":"1"}},{"base_weights":[-9.053421E-4,-1.5897778E-1,1.12135574E-1,-2.9287633E-1,-1.2493495E-1,6.683887E-2,1.8904927E-1,-3.20804E-1,-1.141758E-1,-1.8443555E-1,-8.4870435E-2,5.9397824E-2,4.2777076E-1,-1.2478775E-1,2.0121303E-1,-2.9583117E-1,-5.59584E-1,6.197595E-1,-1.554053E-1,-2.6083207E-1,-8.16163E-2,-9.018049E-2,4.8112044E-1,-3.6151998E-2,7.829635E-2,-5.471863E-1,5.500611E-1,-3.119329E-1,2.9731533E-1,1.1413345E-1,2.4972528E-1,-2.7222565E-1,-5.255641E-1,-6.5867394E-1,-2.496163E-1,5.004997E-2,8.16168E-7,-2.1316849E-1,3.1747627E-1,-4.6987465E-1,-2.3437423E-1,-1.0692452E-1,3.2138097E-1,-1.1744862E-1,4.514661E-3,8.393164E-1,-3.2851655E-2,-7.966941E-2,1.540911E-1,8.674247E-3,1.11766085E-1,5.189707E-8,-3.1756353E-2,6.987556E-1,3.546303E-2,-4.3061575E-1,2.3615476E-1,5.7095027E-1,-2.0325832E-1,5.9420533E-2,2.5840673E-1,3.099068E-1,1.6917531E-1,-1.9917673E-2,-1.1033031E-2,-2.896001E-2,-6.676664E-3,-3.373013E-2,3.2035217E-8,-3.3249196E-2,2.0568278E-2,1.948739E-2,-2.0282326E-2,2.0988887E-2,-1.2827003E-2,-1.4695671E-2,5.4661375E-2,1.8840618E-2,-2.4750281E-2,7.920776E-3,-1.3061151E-2,4.943179E-3,-7.2476976E-3,2.647166E-2,-1.1166184E-2,-6.1766556E-3,2.0998906E-2,-3.088576E-3,7.1149827E-3,4.778084E-3,4.9847443E-2,-1.851792E-2,4.263204E-2,-2.1707332E-2,-2.5780404E-3,-2.1614676E-2,1.1912408E-2,4.557909E-3,-6.4761005E-3,1.5789507E-2,4.2140414E-3,-1.7283564E-2,3.8671087E-2,-2.1088403E-2,2.2441125E-2,3.8225595E-2,-2.3981333E-2,5.1544763E-2,-1.35473255E-2,-9.491192E-3,3.9624464E-2,-2.1786273E-2,3.8225595E-2,-6.7338212E-3,4.4189654E-3,7.53241E-3,2.4054034E-2,7.576201E-3,1.8711098E-2,4.2699303E-2,7.643848E-3],"categories":[],"categories_nodes":[],"categories_segments":[],"categories_sizes":[],"default_left":[0,0,0,0,0,0,0,0,0,0,0,0,0,0,0,0,0,0,0,0,0,0,0,0,0,0,0,0,0,0,0,0,0,0,0,0,0,0,0,0,0,0,0,0,0,0,0,0,0,0,0,0,0,0,0,0,0,0,0,0,0,0,0,0,0,0,0,0,0,0,0,0,0,0,0,0,0,0,0,0,0,0,0,0,0,0,0,0,0,0,0,0,0,0,0,0,0,0,0,0,0,0,0,0,0,0,0,0,0,0,0,0,0,0,0,0,0,0,0,0,0],"id":6,"left_children":[1,3,5,7,9,11,13,15,17,19,21,23,25,27,29,31,33,35,37,39,41,43,45,47,49,51,53,55,57,59,61,63,65,67,69,-1,71,73,75,77,79,81,83,85,87,89,91,93,95,97,99,-1,-1,101,103,105,107,109,111,113,115,117,119,-1,-1,-1,-1,-1,-1,-1,-1,-1,-1,-1,-1,-1,-1,-1,-1,-1,-1,-1,-1,-1,-1,-1,-1,-1,-1,-1,-1,-1,-1,-1,-1,-1,-1,-1,-1,-1,-1,-1,-1,-1,-1,-1,-1,-1,-1,-1,-1,-1,-1,-1,-1,-1,-1,-1,-1,-1,-1],"loss_changes":[1.9657422E2,2.0871803E1,2.2333923E1,4.599983E0,8.706535E0,1.0820387E1,9.098526E0,4.6223373E0,3.9430065E0,1.1537006E1,6.620487E0,7.149851E0,1.0007576E1,7.1470985E0,9.639236E0,3.810421E0,2.1361694E0,1.6449261E0,3.37719E0,4.5564575E0,6.446658E0,5.600979E0,3.8013635E0,5.4286904E0,7.6996994E0,4.6074295E-1,5.5485764E0,4.158033E0,3.943552E0,6.462428E0,7.0682144E0,4.2252235E0,1.3284149E0,5.8909035E-1,5.697131E0,0E0,7.354004E-1,3.0881343E0,6.7671475E0,2.1823387E0,7.9607887E0,4.6497455E0,4.356614E0,5.5585804E0,4.4464335E0,1.3253698E0,3.1193547E0,5.289426E0,6.130233E0,1.2254061E1,1.2487982E1,0E0,0E0,4.6699314E0,3.4744844E0,3.389886E0,5.0128937E0,3.2397127E0,2.720921E0,3.3635576E0,5.334613E0,8.495247E0,6.9049835E0,0E0,0E0,0E0,0E0,0E0,0E0,0E0,0E0,0E0,0E0,0E0,0E0,0E0,0E0,0E0,0E0,0E0,0E0,0E0,0E0,0E0,0E0,0E0,0E0,0E0,0E0,0E0,0E0,0E0,0E0,0E0,0E0,0E0,0E0,0E0,0E0,0E0,0E0,0E0,0E0,0E0,0E0,0E0,0E0,0E0,0E0,0E0,0E0,0E0,0E0,0E0,0E0,0E0,0E0,0E0,0E0,0E0,0E0],"parents":[2147483647,0,0,1,1,2,2,3,3,4,4,5,5,6,6,7,7,8,8,9,9,10,10,11,11,12,12,13,13,14,14,15,15,16,16,17,17,18,18,19,19,20,20,21,21,22,22,23,23,24,24,25,25,26,26,27,27,28,28,29,29,30,30,31,31,32,32,33,33,34,34,36,36,37,37,38,38,39,39,40,40,41,41,42,42,43,43,44,44,45,45,46,46,47,47,48,48,49,49,50,50,53,53,54,54,55,55,56,56,57,57,58,58,59,59,60,60,61,61,62,62],"right_children":[2,4,6,8,10,12,14,16,18,20,22,24,26,28,30,32,34,36,38,40,42,44,46,48,50,52,54,56,58,60,62,64,66,68,70,-1,72,74,76,78,80,82,84,86,88,90,92,94,96,98,100,-1,-1,102,104,106,108,110,112,114,116,118,120,-1,-1,-1,-1,-1,-1,-1,-1,-1,-1,-1,-1,-1,-1,-1,-1,-1,-1,-1,-1,-1,-1,-1,-1,-1,-1,-1,-1,-1,-1,-1,-1,-1,-1,-1,-1,-1,-1,-1,-1,-1,-1,-1,-1,-1,-1,-1,-1,-1,-1,-1,-1,-1,-1,-1,-1,-1,-1],"split_conditions":[5.8564766E1,2.7725168E6,1.1109948E2,1.3823186E1,1.88125E4,5.4375255E6,9.4636164E4,1.1864352E6,9.577088E4,1.200006E6,3.359101E1,-6.031861E1,9.71496E4,5.4375255E6,3.173405E4,3.2007004E1,1.0192799E5,2.274348E1,1.04121E1,9.681812E4,5.5883472E1,5.247109E1,2.5560236E1,1.0036862E2,9.747393E4,3.47318E1,1.0786374E2,9.59E4,6.176822E1,1.6168309E2,5.027691E6,1.7843311E6,1.806771E1,3.545855E1,2.2964777E1,5.004997E-2,5.42591E0,1.3135676E1,9.696E4,1.1265432E-2,9.7204734E4,-3.4502617E1,2.163086E6,1.0710323E5,1.3110182E6,2.382034E1,5.7024856E0,9.550642E4,9.024268E1,7.928188E6,9.76936E4,5.189707E-8,-3.1756353E-2,3.032125E1,5.4526684E1,1.3984459E2,9.536275E4,1.3219496E7,9.5716E4,9.6225086E4,1.0089376E5,9.683749E4,9.5399055E4,-1.9917673E-2,-1.1033031E-2,-2.896001E-2,-6.676664E-3,-3.373013E-2,3.2035217E-8,-3.3249196E-2,2.0568278E-2,1.948739E-2,-2.0282326E-2,2.0988887E-2,-1.2827003E-2,-1.4695671E-2,5.4661375E-2,1.8840618E-2,-2.4750281E-2,7.920776E-3,-1.3061151E-2,4.943179E-3,-7.2476976E-3,2.647166E-2,-1.1166184E-2,-6.1766556E-3,2.0998906E-2,-3.088576E-3,7.1149827E-3,4.778084E-3,4.9847443E-2,-1.851792E-2,4.263204E-2,-2.1707332E-2,-2.5780404E-3,-2.1614676E-2,1.1912408E-2,4.557909E-3,-6.4761005E-3,1.5789507E-2,4.2140414E-3,-1.7283564E-2,3.8671087E-2,-2.1088403E-2,2.2441125E-2,3.8225595E-2,-2.3981333E-2,5.1544763E-2,-1.35473255E-2,-9.491192E-3,3.9624464E-2,-2.1786273E-2,3.8225595E-2,-6.7338212E-3,4.4189654E-3,7.53241E-3,2.4054034E-2,7.576201E-3,1.8711098E-2,4.2699303E-2,7.643848E-3],"split_indices":[34,52,33,46,45,53,22,53,20,53,46,28,37,53,45,28,24,7,4,37,28,33,7,33,20,7,34,1,46,34,51,52,4,34,28,0,4,7,1,47,22,28,53,27,53,31,30,10,34,52,22,0,0,7,31,33,20,52,1,18,22,43,36,0,0,0,0,0,0,0,0,0,0,0,0,0,0,0,0,0,0,0,0,0,0,0,0,0,0,0,0,0,0,0,0,0,0,0,0,0,0,0,0,0,0,0,0,0,0,0,0,0,0,0,0,0,0,0,0,0,0],"split_type":[0,0,0,0,0,0,0,0,0,0,0,0,0,0,0,0,0,0,0,0,0,0,0,0,0,0,0,0,0,0,0,0,0,0,0,0,0,0,0,0,0,0,0,0,0,0,0,0,0,0,0,0,0,0,0,0,0,0,0,0,0,0,0,0,0,0,0,0,0,0,0,0,0,0,0,0,0,0,0,0,0,0,0,0,0,0,0,0,0,0,0,0,0,0,0,0,0,0,0,0,0,0,0,0,0,0,0,0,0,0,0,0,0,0,0,0,0,0,0,0,0],"sum_hessian":[1.0999067E4,4.5859004E3,6.4131675E3,9.28051E2,3.6578494E3,4.0373337E3,2.3758337E3,8.019288E2,1.2612226E2,1.4704507E3,2.1873987E3,3.9569216E3,8.041213E1,8.83018E1,2.287532E3,7.280269E2,7.3901825E1,5.961865E0,1.2016039E2,8.4274176E2,6.277089E2,2.1679004E3,1.9498281E1,6.532442E2,3.3036775E3,8.574848E0,7.183729E1,6.1358624E1,2.694318E1,8.1963617E2,1.4678959E3,6.6217224E2,6.585467E1,5.5147423E1,1.8754402E1,3.3103712E0,2.6514935E0,1.075698E2,1.2590597E1,9.279692E1,7.499448E2,5.913094E2,3.639955E1,1.683022E3,4.8487833E2,1.1117384E1,8.380897E0,5.321077E2,1.2113647E2,1.0729789E3,2.2306985E3,1.325746E0,7.2491026E0,5.5455425E1,1.6381863E1,5.0613182E1,1.0745442E1,1.7329527E1,9.613652E0,5.95294E2,2.2434216E2,8.3854443E2,6.2935144E2,1.9020538E2,4.719669E2,5.7509064E1,8.345603E0,5.3821674E1,1.3257468E0,1.1513285E1,7.2411184E0,1.3722386E0,1.279255E0,6.3417897E0,1.01228004E2,7.388585E0,5.202012E0,2.271567E0,9.052535E1,4.7668503E1,7.022763E2,9.1979935E1,4.9932944E2,2.6359476E1,1.0040075E1,1.6649424E3,1.807955E1,3.2775314E2,1.5712517E2,2.2250752E0,8.892309E0,6.489256E0,1.8916407E0,3.8032684E1,4.9407504E2,1.4684175E1,1.0645229E2,6.721433E2,4.008356E2,2.6358777E2,1.9671107E3,3.4578335E0,5.199759E1,7.768507E0,8.613355E0,1.4187305E0,4.919445E1,3.7832813E0,6.962161E0,3.9405777E0,1.3388949E1,8.1949215E0,1.4187305E0,7.6811584E1,5.184824E2,1.5231093E2,7.2031235E1,2.4314069E2,5.954037E2,1.3435439E1,6.15916E2],"tree_param":{"num_deleted":"0","num_feature":"55","num_nodes":"121","size_leaf_vector":"1"}},{"base_weights":[1.0328931E-2,-3.6126953E-2,3.5103634E-1,1.2794305E0,-3.612693E-2,6.28096E-2,1.2924058E0,5.867414E-1,-1.3884811E-1,6.515243E-2,3.330638E-1,-2.4104098E-2,8.1247133E-1,4.44764E-1,-2.96045E-1,4.6420535E-1,-1.791376E-1,-5.865311E-4,4.671813E-2,-2.1457462E-2,3.565043E-2,-1.7587569E-2,2.0993827E-2,3.6477696E-2,5.6372033E-3,-3.0397741E-2,1.0813828E-2],"categories":[],"categories_nodes":[],"categories_segments":[],"categories_sizes":[],"default_left":[0,0,0,0,0,0,0,0,0,0,0,0,0,0,0,0,0,0,0,0,0,0,0,0,0,0,0],"id":7,"left_children":[1,-1,3,5,-1,7,9,11,13,-1,15,-1,17,19,21,23,25,-1,-1,-1,-1,-1,-1,-1,-1,-1,-1],"loss_changes":[2.7626414E3,0E0,7.5288267E3,6.3862305E1,0E0,4.7086782E0,4.048633E1,3.3744717E0,3.107083E0,0E0,3.1271787E0,0E0,1.0738368E0,2.0129707E0,1.1906195E0,3.3085127E0,1.820183E0,0E0,0E0,0E0,0E0,0E0,0E0,0E0,0E0,0E0,0E0],"parents":[2147483647,0,0,2,2,3,3,5,5,6,6,7,7,8,8,10,10,12,12,13,13,14,14,15,15,16,16],"right_children":[2,-1,4,6,-1,8,10,12,14,-1,16,-1,18,20,22,24,26,-1,-1,-1,-1,-1,-1,-1,-1,-1,-1],"split_conditions":[-5.090615E-4,-3.6126953E-2,5.0660834E-4,-4.9510685E-4,-3.612693E-2,4.0586075E1,4.936283E-4,6.0828123E0,7.77094E0,6.515243E-2,5.776E1,-2.4104098E-2,2.27565E0,4.1860725E1,2.3536036E1,1.4481482E-1,8.771E1,-5.865311E-4,4.671813E-2,-2.1457462E-2,3.565043E-2,-1.7587569E-2,2.0993827E-2,3.6477696E-2,5.6372033E-3,-3.0397741E-2,1.0813828E-2],"split_indices":[12,0,12,12,0,34,12,46,4,0,6,0,4,34,30,49,6,0,0,0,0,0,0,0,0,0,0],"split_type":[0,0,0,0,0,0,0,0,0,0,0,0,0,0,0,0,0,0,0,0,0,0,0,0,0,0,0],"sum_hessian":[1.1062111E4,3.5102905E3,7.5518213E3,4.0496328E3,3.5021882E3,4.2795513E1,4.0068374E3,1.1363122E1,3.1432392E1,3.9625198E3,4.431757E1,1.7833529E0,9.579769E0,6.2816563E0,2.5150736E1,3.5358307E1,8.959264E0,1.3506612E0,8.229108E0,1.3344177E0,4.9472384E0,2.3806973E1,1.3437636E0,1.9534359E1,1.5823949E1,4.040224E0,4.91904E0],"tree_param":{"num_deleted":"0","num_feature":"55","num_nodes":"27","size_leaf_vector":"1"}},{"base_weights":[-9.583025E-3,-3.613256E-2,1.292153E0,3.1345332E-1,6.515225E-2,-2.3475985E-1,4.4218555E-1,1.8166225E-1,-3.0310733E-2,9.032071E-1,2.423012E-1,-2.8287473E-1,4.165144E-2,1.0991971E0,2.4544397E-1,-2.1273904E-1,7.155215E-1,-2.1930918E-2,-2.765783E-4,5.9340484E-2,1.9774778E-2,2.065512E-2,-1.2234092E-3,3.1254083E-2,-2.5218278E-2,1.3838492E-2,4.5522206E-2],"categories":[],"categories_nodes":[],"categories_segments":[],"categories_sizes":[],"default_left":[0,0,0,0,0,0,0,0,0,0,0,0,0,0,0,0,0,0,0,0,0,0,0,0,0,0,0],"id":8,"left_children":[1,-1,3,5,-1,7,9,11,-1,13,15,17,-1,19,21,23,25,-1,-1,-1,-1,-1,-1,-1,-1,-1,-1],"loss_changes":[1.0250944E4,0E0,4.125537E1,3.2326832E0,0E0,1.5153074E0,3.1217318E0,1.7644023E0,0E0,1.096344E0,5.891735E0,1.5720415E-1,0E0,1.6262054E-2,1.7845856E-1,3.8235712E0,8.8505316E-1,0E0,0E0,0E0,0E0,0E0,0E0,0E0,0E0,0E0,0E0],"parents":[2147483647,0,0,2,2,3,3,5,5,6,6,7,7,9,9,10,10,11,11,13,13,14,14,15,15,16,16],"right_children":[2,-1,4,6,-1,8,10,12,-1,14,16,18,-1,20,22,24,26,-1,-1,-1,-1,-1,-1,-1,-1,-1,-1],"split_conditions":[4.936283E-4,-3.613256E-2,5.0660834E-4,3.4259636E1,6.515225E-2,2.8731138E1,1.1569559E1,2.7055674E1,-3.0310733E-2,1.0016506E5,1.999431E1,1.01408E5,4.165144E-2,2.1850574E-1,3.146E1,6.10151E0,-1.9534756E1,-2.1930918E-2,-2.765783E-4,5.9340484E-2,1.9774778E-2,2.065512E-2,-1.2234092E-3,3.1254083E-2,-2.5218278E-2,1.3838492E-2,4.5522206E-2],"split_indices":[12,0,12,33,0,33,46,33,0,39,17,2,0,48,6,17,29,0,0,0,0,0,0,0,0,0,0],"split_type":[0,0,0,0,0,0,0,0,0,0,0,0,0,0,0,0,0,0,0,0,0,0,0,0,0,0,0],"sum_hessian":[1.1041574E4,7.13409E3,3.9074844E3,4.3335484E1,3.864149E3,8.084324E0,3.525116E1,4.0523505E0,4.0319734E0,9.597179E0,2.5653982E1,2.6956248E0,1.3567257E0,6.8769712E0,2.7202077E0,1.3358821E1,1.2295161E1,1.3538576E0,1.3417672E0,5.5050554E0,1.3719159E0,1.3507009E0,1.3695068E0,3.1540487E0,1.0204772E1,4.526454E0,7.7687073E0],"tree_param":{"num_deleted":"0","num_feature":"55","num_nodes":"27","size_leaf_vector":"1"}},{"base_weights":[-7.1841306E-3,-1.582853E-1,9.811869E-2,-3.036956E-1,-1.2444631E-1,5.2274376E-2,1.788649E-1,2.7809257E-2,-3.215444E-1,-1.72584E-1,-8.491165E-2,-6.0829807E-2,7.4921034E-2,9.666088E-5,2.0280562E-1,4.5316264E-1,-5.329212E-1,-4.0729094E-1,-2.3541503E-1,-1.8137556E-1,5.617741E-1,-3.389964E-3,-1.2671176E-1,-1.0838827E-1,1.7851034E-1,9.040562E-3,1.05128355E-1,-2.2251318E-1,8.0555335E-2,4.168935E-1,1.836322E-1,6.033111E-1,-2.667741E-2,-6.164988E-1,5.3016003E-3,-4.1720378E-1,4.4235874E-2,4.5176324E-2,-2.4436237E-1,-1.8505101E-1,6.423595E-1,9.5658976E-1,-7.700808E-2,-5.3674184E-2,2.6081446E-1,7.909745E-2,-1.3885225E-1,-1.1992148E-1,6.4449275E-1,2.8326327E-1,-3.4473166E-1,5.9879802E-2,-1.4600404E-1,3.3300802E-1,8.6424395E-2,3.1360495E-1,-3.4701905E-1,2.2172862E-1,-1.1204152E-1,2.7332243E-1,8.526741E-1,-3.834882E-1,1.9713502E-1,-2.2362879E-2,3.5375085E-2,-3.3372477E-2,-5.3598443E-3,-1.9972181E-2,1.9484507E-2,-2.555356E-2,-1.6560178E-2,1.47815645E-2,-1.3214409E-2,-1.1683544E-2,-6.6606784E-3,4.46234E-2,-5.6264563E-3,5.326848E-2,1.0484326E-2,-1.7501963E-2,3.732815E-2,1.9474349E-3,-7.448278E-3,1.6465299E-2,-2.6687587E-2,2.1157358E-2,-1.008623E-2,-1.0815179E-2,-4.2082546E-3,-2.0787543E-2,-4.8483885E-3,-5.9457826E-3,4.2528797E-2,-9.301635E-3,1.9770665E-2,-2.5123714E-2,1.7759522E-2,7.940999E-3,-5.3458665E-3,-1.6275687E-2,-1.6793798E-3,-1.5636077E-2,1.9646665E-2,-2.2174358E-2,4.6866755E-3,-1.8826902E-2,3.0001095E-2,9.88261E-3,-2.1711305E-2,-2.476498E-2,1.4861631E-2,1.8095637E-2,-1.2833625E-2,9.51702E-3,4.159575E-2,4.596325E-2,-2.2532279E-2,-3.0858604E-2,2.1485876E-2,2.1940181E-2,8.66869E-3],"categories":[],"categories_nodes":[],"categories_segments":[],"categories_sizes":[],"default_left":[0,0,0,0,0,0,0,0,0,0,0,0,0,0,0,0,0,0,0,0,0,0,0,0,0,0,0,0,0,0,0,0,0,0,0,0,0,0,0,0,0,0,0,0,0,0,0,0,0,0,0,0,0,0,0,0,0,0,0,0,0,0,0,0,0,0,0,0,0,0,0,0,0,0,0,0,0,0,0,0,0,0,0,0,0,0,0,0,0,0,0,0,0,0,0,0,0,0,0,0,0,0,0,0,0,0,0,0,0,0,0,0,0,0,0,0,0,0,0,0,0],"id":9,"left_children":[1,3,5,7,9,11,13,15,17,19,21,23,25,27,29,31,33,35,37,39,41,43,45,47,49,51,53,55,57,59,61,63,-1,65,67,69,-1,-1,71,73,75,77,79,81,83,85,87,89,91,93,95,97,99,101,103,105,107,109,111,113,115,117,119,-1,-1,-1,-1,-1,-1,-1,-1,-1,-1,-1,-1,-1,-1,-1,-1,-1,-1,-1,-1,-1,-1,-1,-1,-1,-1,-1,-1,-1,-1,-1,-1,-1,-1,-1,-1,-1,-1,-1,-1,-1,-1,-1,-1,-1,-1,-1,-1,-1,-1,-1,-1,-1,-1,-1,-1,-1,-1],"loss_changes":[1.7513782E2,2.2205452E1,2.4002491E1,5.054291E0,6.9674606E0,1.0606124E1,1.0052002E1,1.0851614E1,5.880348E0,1.0776672E1,6.87059E0,7.8850813E0,6.8625965E0,5.004142E0,8.42572E0,4.149684E0,8.871269E-1,5.5450516E0,4.358862E0,5.0678406E0,5.068343E0,9.107526E0,3.341381E0,5.0883284E0,6.3969736E0,8.563691E0,1.0049585E1,5.0598555E0,5.6046057E0,1.0369783E1,1.4646957E1,2.8223658E0,0E0,3.7000656E-1,7.2079855E-1,3.0738068E0,0E0,0E0,4.4218044E0,4.072315E0,1.5135925E0,7.770901E-1,2.1704814E0,5.0884895E0,6.141049E0,7.3203545E0,5.3144455E0,3.8250198E0,1.4956753E0,5.1423044E0,2.3448508E0,1.351699E1,5.403181E0,7.049656E0,8.510502E0,3.0930028E0,2.9675264E0,6.5763373E0,6.0884295E0,5.818575E0,4.0181484E0,8.739025E0,1.0600311E1,0E0,0E0,0E0,0E0,0E0,0E0,0E0,0E0,0E0,0E0,0E0,0E0,0E0,0E0,0E0,0E0,0E0,0E0,0E0,0E0,0E0,0E0,0E0,0E0,0E0,0E0,0E0,0E0,0E0,0E0,0E0,0E0,0E0,0E0,0E0,0E0,0E0,0E0,0E0,0E0,0E0,0E0,0E0,0E0,0E0,0E0,0E0,0E0,0E0,0E0,0E0,0E0,0E0,0E0,0E0,0E0,0E0,0E0],"parents":[2147483647,0,0,1,1,2,2,3,3,4,4,5,5,6,6,7,7,8,8,9,9,10,10,11,11,12,12,13,13,14,14,15,15,16,16,17,17,18,18,19,19,20,20,21,21,22,22,23,23,24,24,25,25,26,26,27,27,28,28,29,29,30,30,31,31,33,33,34,34,35,35,38,38,39,39,40,40,41,41,42,42,43,43,44,44,45,45,46,46,47,47,48,48,49,49,50,50,51,51,52,52,53,53,54,54,55,55,56,56,57,57,58,58,59,59,60,60,61,61,62,62],"right_children":[2,4,6,8,10,12,14,16,18,20,22,24,26,28,30,32,34,36,38,40,42,44,46,48,50,52,54,56,58,60,62,64,-1,66,68,70,-1,-1,72,74,76,78,80,82,84,86,88,90,92,94,96,98,100,102,104,106,108,110,112,114,116,118,120,-1,-1,-1,-1,-1,-1,-1,-1,-1,-1,-1,-1,-1,-1,-1,-1,-1,-1,-1,-1,-1,-1,-1,-1,-1,-1,-1,-1,-1,-1,-1,-1,-1,-1,-1,-1,-1,-1,-1,-1,-1,-1,-1,-1,-1,-1,-1,-1,-1,-1,-1,-1,-1,-1,-1,-1,-1,-1],"split_conditions":[5.7846535E1,2.7055674E1,1.1109948E2,5.566249E-2,4.2126663E1,-6.031861E1,9.585973E4,1.3076562E1,1.661564E1,1.0710323E5,2.5715532E1,1.0218782E2,9.745326E4,1.3187064E2,9.7081914E4,3.4681108E0,9.9606234E4,7.704865E-1,9.532858E4,3.275376E6,-5.7791924E0,6.0307808E1,3.2582508E6,4.7822235E6,5.671171E1,9.675573E4,9.749513E4,-6.730056E1,1.7434618E2,5.94853E0,9.646262E4,1.7192682E1,-2.667741E-2,1.224752E1,9.98105E4,9.6942016E4,4.4235874E-2,4.5176324E-2,1.4992437E1,9.9905875E4,5.1917206E1,3.735925E1,1.0726576E5,2.9462916E-1,1.0642574E5,5.0187614E1,1.1376989E6,9.561596E4,3.127085E1,9.3328735E1,4.1949245E6,8.560898E1,5.1426926E1,9.4201594E5,9.754812E4,-1.5966545E2,4.4255314E1,9.39463E4,-1.2044433E2,9.6565195E4,5.807281E-1,9.680305E4,2.9267698E6,-2.2362879E-2,3.5375085E-2,-3.3372477E-2,-5.3598443E-3,-1.9972181E-2,1.9484507E-2,-2.555356E-2,-1.6560178E-2,1.47815645E-2,-1.3214409E-2,-1.1683544E-2,-6.6606784E-3,4.46234E-2,-5.6264563E-3,5.326848E-2,1.0484326E-2,-1.7501963E-2,3.732815E-2,1.9474349E-3,-7.448278E-3,1.6465299E-2,-2.6687587E-2,2.1157358E-2,-1.008623E-2,-1.0815179E-2,-4.2082546E-3,-2.0787543E-2,-4.8483885E-3,-5.9457826E-3,4.2528797E-2,-9.301635E-3,1.9770665E-2,-2.5123714E-2,1.7759522E-2,7.940999E-3,-5.3458665E-3,-1.6275687E-2,-1.6793798E-3,-1.5636077E-2,1.9646665E-2,-2.2174358E-2,4.6866755E-3,-1.8826902E-2,3.0001095E-2,9.88261E-3,-2.1711305E-2,-2.476498E-2,1.4861631E-2,1.8095637E-2,-1.2833625E-2,9.51702E-3,4.159575E-2,4.596325E-2,-2.2532279E-2,-3.0858604E-2,2.1485876E-2,2.1940181E-2,8.66869E-3],"split_indices":[34,33,33,50,34,28,22,29,7,27,7,33,20,33,39,30,44,50,21,53,28,31,51,53,7,40,22,28,33,28,25,33,0,4,0,44,0,0,33,22,31,33,2,50,40,34,53,42,31,34,53,33,31,53,27,28,7,0,28,44,50,44,51,0,0,0,0,0,0,0,0,0,0,0,0,0,0,0,0,0,0,0,0,0,0,0,0,0,0,0,0,0,0,0,0,0,0,0,0,0,0,0,0,0,0,0,0,0,0,0,0,0,0,0,0,0,0,0,0,0,0],"split_type":[0,0,0,0,0,0,0,0,0,0,0,0,0,0,0,0,0,0,0,0,0,0,0,0,0,0,0,0,0,0,0,0,0,0,0,0,0,0,0,0,0,0,0,0,0,0,0,0,0,0,0,0,0,0,0,0,0,0,0,0,0,0,0,0,0,0,0,0,0,0,0,0,0,0,0,0,0,0,0,0,0,0,0,0,0,0,0,0,0,0,0,0,0,0,0,0,0,0,0,0,0,0,0,0,0,0,0,0,0,0,0,0,0,0,0,0,0,0,0,0,0],"sum_hessian":[1.1005103E4,4.51949E3,6.4856123E3,8.5169196E2,3.6677983E3,4.1379214E3,2.3476912E3,4.3485252E1,8.082067E2,1.6524265E3,2.0153718E3,6.9002826E2,3.447893E3,2.773902E2,2.070301E3,2.4836704E1,1.8648548E1,4.0313483E2,4.050719E2,1.6336222E3,1.8804338E1,6.834797E2,1.3318921E3,5.761004E2,1.1392782E2,1.08433E3,2.3635632E3,7.3172874E1,2.0421733E2,1.684678E2,1.9018333E3,2.189369E1,2.9430144E0,1.6016068E1,2.6324809E0,4.007373E2,2.3975372E0,2.3780491E0,4.0269385E2,1.6271375E3,6.484819E0,1.1313944E1,7.490394E0,5.748662E2,1.08613495E2,7.388346E1,1.2580087E3,5.6823645E2,7.863966E0,9.5306175E1,1.862164E1,8.1703674E2,2.6729318E2,1.7800732E2,2.185556E3,1.3504434E1,5.9668438E1,1.1775314E2,8.646418E1,1.279432E2,4.0524612E1,4.359127E1,1.858242E3,1.6783152E0,2.0215374E1,1.4277248E1,1.7388183E0,1.2632085E0,1.3692725E0,1.8924155E2,2.1149574E2,1.3838232E1,3.888556E2,8.3781665E2,7.893208E2,4.73408E0,1.750739E0,9.503465E0,1.810479E0,6.057259E0,1.433135E0,2.9181464E2,2.8305154E2,1.00533104E2,8.080389E0,3.2976017E1,4.0907448E1,5.194195E2,7.385892E2,3.968323E1,5.285532E2,1.7615409E0,6.1024256E0,1.8255709E1,7.705047E1,1.5426943E1,3.1946964E0,5.12865E2,3.0417175E2,1.02200676E2,1.650925E2,1.4758401E1,1.6324893E2,2.892349E1,2.1566323E3,3.8684542E0,9.63598E0,8.060197E0,5.1608242E1,1.0688576E1,1.0706457E2,1.9864876E1,6.6599304E1,1.125622E2,1.5380994E1,3.883508E1,1.6895356E0,3.4048195E1,9.543073E0,1.647857E2,1.6934563E3],"tree_param":{"num_deleted":"0","num_feature":"55","num_nodes":"121","size_leaf_vector":"1"}},{"base_weights":[7.857273E-3,-3.5885695E-2,3.4189662E-1,1.2144909E0,-3.534504E-2,5.2606948E-2,1.2274994E0,1.450172E-1,-3.074399E-2,6.1881166E-2,3.167982E-1,-3.5272476E-1,2.8224725E-1,3.9092603E-1,-2.7508307E-2,1.9961242E-2,-2.6491499E-2,5.8833062E-5,2.860548E-2,2.9338632E-2,3.8716774E-3],"categories":[],"categories_nodes":[],"categories_segments":[],"categories_sizes":[],"default_left":[0,0,0,0,0,0,0,0,0,0,0,0,0,0,0,0,0,0,0,0,0],"id":10,"left_children":[1,-1,3,5,-1,7,9,11,-1,-1,13,15,17,19,-1,-1,-1,-1,-1,-1,-1],"loss_changes":[2.655538E3,0E0,6.8669834E3,6.1838867E1,0E0,2.9507542E0,3.6950195E1,2.9382877E0,0E0,0E0,3.1632452E0,1.4668676E0,2.6987498E0,2.5851264E0,0E0,0E0,0E0,0E0,0E0,0E0,0E0],"parents":[2147483647,0,0,2,2,3,3,5,5,6,6,7,7,10,10,11,11,12,12,13,13],"right_children":[2,-1,4,6,-1,8,10,12,-1,-1,14,16,18,20,-1,-1,-1,-1,-1,-1,-1],"split_conditions":[-5.090615E-4,-3.5885695E-2,5.0660834E-4,-4.9510685E-4,-3.534504E-2,5.8305172E1,4.936283E-4,1.847911E-1,-3.074399E-2,6.1881166E-2,6.719255E1,0E0,1.1864352E6,3.0814232E4,-2.7508307E-2,1.9961242E-2,-2.6491499E-2,5.8833062E-5,2.860548E-2,2.9338632E-2,3.8716774E-3],"split_indices":[12,0,12,12,0,7,12,50,0,0,28,50,53,45,0,0,0,0,0,0,0],"split_type":[0,0,0,0,0,0,0,0,0,0,0,0,0,0,0,0,0,0,0,0,0],"sum_hessian":[1.0954564E4,3.4530347E3,7.50153E3,4.0946462E3,3.4068833E3,4.53921E1,4.0492542E3,4.055957E1,4.8325315E0,4.00438E3,4.487436E1,8.42635E0,3.213322E1,4.1845535E1,3.0288222E0,1.3672292E0,7.0591207E0,1.682378E1,1.530944E1,2.521892E1,1.6626617E1],"tree_param":{"num_deleted":"0","num_feature":"55","num_nodes":"21","size_leaf_vector":"1"}},{"base_weights":[-6.9219E-3,-3.5628986E-2,1.2299644E0,3.7941194E-1,6.195387E-2,-2.6125085E-2,5.3864986E-1,-3.6366144E-1,6.656173E-1,1.462103E-1,7.7690536E-1,2.0661404E-2,-5.425912E-1,4.7731668E-2,-1.0834194E-3,5.466638E-1,-4.4329998E-1,8.9107877E-1,-2.1489365E-2,-3.238338E-2,-1.2514756E-4,4.315477E-2,-1.0496164E-2,-2.8767413E-2,1.4616545E-4,7.279408E-3,5.2026074E-2],"categories":[],"categories_nodes":[],"categories_segments":[],"categories_sizes":[],"default_left":[0,0,0,0,0,0,0,0,0,0,0,0,0,0,0,0,0,0,0,0,0,0,0,0,0,0,0],"id":11,"left_children":[1,-1,3,5,-1,7,9,11,13,15,17,-1,19,-1,-1,21,23,25,-1,-1,-1,-1,-1,-1,-1,-1,-1],"loss_changes":[9.524336E3,0E0,3.0254883E1,2.8207173E0,0E0,3.3259354E0,2.8087053E0,1.5480232E0,9.5122385E-1,3.3203843E0,3.0303507E0,0E0,4.6218872E-1,0E0,0E0,2.147231E0,3.4499705E-1,1.8404922E0,0E0,0E0,0E0,0E0,0E0,0E0,0E0,0E0,0E0],"parents":[2147483647,0,0,2,2,3,3,5,5,6,6,7,7,8,8,9,9,10,10,12,12,15,15,16,16,17,17],"right_children":[2,-1,4,6,-1,8,10,12,14,16,18,-1,20,-1,-1,22,24,26,-1,-1,-1,-1,-1,-1,-1,-1,-1],"split_conditions":[4.936283E-4,-3.5628986E-2,5.0660834E-4,9.734509E4,6.195387E-2,5.5777153E1,2.0296059E4,-5.3270794E1,9.570556E4,1.535859E4,6.229117E-1,2.0661404E-2,5.9574884E-1,4.7731668E-2,-1.0834194E-3,9.150389E-1,1.8639209E4,-5.678404E1,-2.1489365E-2,-3.238338E-2,-1.2514756E-4,4.315477E-2,-1.0496164E-2,-2.8767413E-2,1.4616545E-4,7.279408E-3,5.2026074E-2],"split_indices":[12,0,12,39,0,31,45,28,44,45,49,0,50,0,0,47,45,28,0,0,0,0,0,0,0,0,0],"split_type":[0,0,0,0,0,0,0,0,0,0,0,0,0,0,0,0,0,0,0,0,0,0,0,0,0,0,0],"sum_hessian":[1.0910158E4,6.9471523E3,3.963006E3,4.246207E1,3.920544E3,1.2207844E1,3.0254227E1,8.523214E0,3.6846287E0,1.2038626E1,1.8215601E1,1.3504212E0,7.1727934E0,2.3200257E0,1.364603E0,7.2121224E0,4.8265038E0,1.688002E1,1.3355811E0,5.837832E0,1.3349619E0,4.9860187E0,2.226104E0,3.5010772E0,1.3254265E0,3.1484213E0,1.3731598E1],"tree_param":{"num_deleted":"0","num_feature":"55","num_nodes":"27","size_leaf_vector":"1"}},{"base_weights":[-4.527378E-3,1.2347484E0,-3.56201E-2,6.2135614E-2,5.3723013E-1,-2.3287134E-1,6.222485E-1,2.1825444E-2,-2.789929E-2,4.0558255E-1,7.9748136E-1,5.2034944E-1,-2.5478957E-2,5.071416E-1,5.8802553E-2,-1.0471887E-2,3.1425495E-2,5.1758964E-2,1.1193824E-2],"categories":[],"categories_nodes":[],"categories_segments":[],"categories_sizes":[],"default_left":[0,0,0,0,0,0,0,0,0,0,0,0,0,0,0,0,0,0,0],"id":12,"left_children":[1,3,-1,-1,5,7,9,-1,-1,11,13,15,-1,17,-1,-1,-1,-1,-1],"loss_changes":[9.645313E3,2.153711E1,0E0,0E0,3.2145405E0,1.4163537E0,1.2899685E0,0E0,0E0,2.4745877E0,1.8721342E0,1.6461258E0,0E0,1.9324238E0,0E0,0E0,0E0,0E0,0E0],"parents":[2147483647,0,0,1,1,4,4,5,5,6,6,9,9,10,10,11,11,13,13],"right_children":[2,4,-1,-1,6,8,10,-1,-1,12,14,16,-1,18,-1,-1,-1,-1,-1],"split_conditions":[-4.9510685E-4,-5.090615E-4,-3.56201E-2,6.2135614E-2,1.6363241E1,3.1485125E-1,3.003502E1,2.1825444E-2,-2.789929E-2,5.8736205E6,3.238562E-1,-3.236633E1,-2.5478957E-2,-3.5849697E1,5.8802553E-2,-1.0471887E-2,3.1425495E-2,5.1758964E-2,1.1193824E-2],"split_indices":[12,12,0,0,7,50,7,0,0,52,50,28,0,28,0,0,0,0,0],"split_type":[0,0,0,0,0,0,0,0,0,0,0,0,0,0,0,0,0,0,0],"sum_hessian":[1.0992917E4,3.9961375E3,6.99678E3,3.9502532E3,4.588418E1,4.3890276E0,4.149515E1,1.3228245E0,3.066203E0,2.0036114E1,2.1459036E1,1.8186792E1,1.8493224E0,1.3468866E1,7.9901705E0,2.2266474E0,1.5960144E1,3.7758358E0,9.69303E0],"tree_param":{"num_deleted":"0","num_feature":"55","num_nodes":"19","size_leaf_vector":"1"}},{"base_weights":[1.1257596E-2,-3.5645913E-2,3.4313104E-1,1.1581242E0,-3.463575E-2,7.6758415E-2,1.1701424E0,6.1552477E-1,-1.4733864E-1,5.9008367E-2,2.5924706E-1,8.4885883E-1,-1.2606645E-1,-3.59761E-2,-3.153888E-2,4.004161E-1,-2.2567548E-1,-8.010282E-4,4.8735015E-2,9.320076E-3,-2.2440083E-2,-2.293411E-2,8.088304E-3,2.4524737E-2,-2.7024075E-2,2.0234283E-2,-2.151819E-2],"categories":[],"categories_nodes":[],"categories_segments":[],"categories_sizes":[],"default_left":[0,0,0,0,0,0,0,0,0,0,0,0,0,0,0,0,0,0,0,0,0,0,0,0,0,0,0],"id":13,"left_children":[1,-1,3,5,-1,7,9,11,13,-1,15,17,19,21,-1,23,25,-1,-1,-1,-1,-1,-1,-1,-1,-1,-1],"loss_changes":[2.6232808E3,0E0,6.3196206E3,5.4355957E1,0E0,5.77967E0,3.7529785E1,2.5355659E0,1.8123091E0,0E0,3.265639E0,1.1916137E0,5.101995E-1,2.47844E0,0E0,3.3405194E0,1.6061212E0,0E0,0E0,0E0,0E0,0E0,0E0,0E0,0E0,0E0,0E0],"parents":[2147483647,0,0,2,2,3,3,5,5,6,6,7,7,8,8,10,10,11,11,12,12,13,13,15,15,16,16],"right_children":[2,-1,4,6,-1,8,10,12,14,-1,16,18,20,22,-1,24,26,-1,-1,-1,-1,-1,-1,-1,-1,-1,-1],"split_conditions":[-5.090615E-4,-3.5645913E-2,5.0660834E-4,-4.9510685E-4,-3.463575E-2,4.18668E6,4.936283E-4,6.2518253E0,3.4671578E-1,5.9008367E-2,2.696391E1,2.11795E0,6.3030865E6,4.0780785E6,-3.153888E-2,6.251748E1,6.599384E1,-8.010282E-4,4.8735015E-2,9.320076E-3,-2.2440083E-2,-2.293411E-2,8.088304E-3,2.4524737E-2,-2.7024075E-2,2.0234283E-2,-2.151819E-2],"split_indices":[12,0,12,12,0,52,12,30,48,0,4,4,51,51,0,31,33,0,0,0,0,0,0,0,0,0,0],"split_type":[0,0,0,0,0,0,0,0,0,0,0,0,0,0,0,0,0,0,0,0,0,0,0,0,0,0,0],"sum_hessian":[1.0913095E4,3.429182E3,7.4839126E3,4.1884023E3,3.2955105E3,4.611918E1,4.142283E3,1.3034763E1,3.3084415E1,4.096899E3,4.538414E1,9.8050585E0,3.2297058E0,2.7763397E1,5.3210177E0,3.5286053E1,1.0098088E1,1.3562893E0,8.448769E0,1.8555851E0,1.3741207E0,8.427865E0,1.9335531E1,3.2639904E1,2.6461487E0,2.2357516E0,7.8623366E0],"tree_param":{"num_deleted":"0","num_feature":"55","num_nodes":"27","size_leaf_vector":"1"}},{"base_weights":[-8.814729E-3,-9.085328E-2,1.6434404E-1,-2.0212427E-1,-3.305119E-2,1.1314433E-1,2.6717964E-1,-2.70839E-1,-1.4777927E-1,2.4779648E-2,-8.752455E-2,3.2704285E-1,8.139854E-2,4.8555046E-1,2.2928447E-1,-2.7626768E-1,4.856592E-1,-1.3654405E-1,-4.6110788E-1,1.0780765E-1,-1.0294281E-2,1.11784816E-1,-1.03427105E-1,5.0168705E-1,1.8728693E-1,1.1482585E-1,6.600734E-3,9.563033E-1,3.6051744E-1,-3.1404957E-1,2.4590273E-1,-2.6221982E-1,-5.5056286E-1,7.753414E-1,-2.1741701E-2,-5.101297E-2,-1.8177998E-1,4.747904E-2,-5.182833E-1,6.7904085E-1,9.448887E-2,9.598539E-3,-1.9805758E-1,-7.090896E-2,4.278991E-1,-4.0337032E-1,-9.33018E-2,3.5584345E-1,8.269983E-1,-8.414611E-2,3.2834238E-1,9.7563766E-2,3.5048446E-1,-3.882538E-1,3.935852E-2,4.9154267E-1,1.0597711E0,-1.3482596E-1,4.4399163E-1,2.2600879E-1,-5.0903845E-1,5.899262E-1,2.1869579E-1,-1.0937384E-2,-1.7426169E-2,-2.9098487E-2,1.8200617E-2,1.056223E-2,4.6861313E-2,4.5254987E-4,-1.3541889E-2,-9.6888235E-3,1.3770238E-2,-2.511671E-2,3.0110825E-2,-9.845799E-3,-2.9053468E-2,-3.5091208E-3,4.305282E-2,-4.988106E-3,6.8938187E-3,3.8827643E-2,2.6068644E-4,-3.232191E-2,-5.423839E-3,-8.665611E-3,2.0124407E-2,2.7000353E-2,-1.6628629E-2,-8.460923E-3,-2.55943E-2,-1.3800174E-3,-6.8585784E-3,2.7586421E-2,8.022563E-3,4.3789897E-2,-1.9774294E-2,1.6967833E-2,-1.8726407E-2,2.2421395E-2,-1.8946187E-3,5.2115708E-3,-2.896658E-2,3.012619E-2,-3.2630973E-3,9.944717E-3,-2.9358864E-2,1.8140435E-2,2.1723263E-5,-3.3402336E-3,4.1075293E-2,5.4151844E-2,1.7884107E-2,-2.7750406E-2,1.4306772E-2,1.01922685E-2,3.013896E-2,3.044239E-2,-2.5440266E-2,-3.098469E-2,3.2623631E-3,4.142699E-3,4.28687E-2,1.0364072E-2,4.8852783E-2],"categories":[],"categories_nodes":[],"categories_segments":[],"categories_sizes":[],"default_left":[0,0,0,0,0,0,0,0,0,0,0,0,0,0,0,0,0,0,0,0,0,0,0,0,0,0,0,0,0,0,0,0,0,0,0,0,0,0,0,0,0,0,0,0,0,0,0,0,0,0,0,0,0,0,0,0,0,0,0,0,0,0,0,0,0,0,0,0,0,0,0,0,0,0,0,0,0,0,0,0,0,0,0,0,0,0,0,0,0,0,0,0,0,0,0,0,0,0,0,0,0,0,0,0,0,0,0,0,0,0,0,0,0,0,0,0,0,0,0,0,0,0,0,0,0],"id":14,"left_children":[1,3,5,7,9,11,13,15,17,19,21,23,25,27,29,31,33,35,37,39,41,43,45,47,49,51,53,55,57,59,61,63,65,67,-1,69,71,73,75,77,79,81,83,85,87,89,91,93,95,97,99,101,103,105,107,109,111,113,115,117,119,121,123,-1,-1,-1,-1,-1,-1,-1,-1,-1,-1,-1,-1,-1,-1,-1,-1,-1,-1,-1,-1,-1,-1,-1,-1,-1,-1,-1,-1,-1,-1,-1,-1,-1,-1,-1,-1,-1,-1,-1,-1,-1,-1,-1,-1,-1,-1,-1,-1,-1,-1,-1,-1,-1,-1,-1,-1,-1,-1,-1,-1,-1,-1],"loss_changes":[1.551871E2,4.7667473E1,1.8460236E1,9.422394E0,1.5373624E1,1.5905579E1,9.542282E0,4.7248E0,4.9256935E0,6.895749E0,7.9762325E0,7.2988663E0,5.1108294E0,9.756214E0,9.070015E0,4.1346436E0,2.5575278E0,5.289318E0,1.4388294E0,5.2859383E0,6.222258E0,1.0781723E1,7.0316963E0,6.0653915E0,6.5305686E0,5.713375E0,8.196534E0,1.1818466E0,5.732929E0,3.2739184E0,8.921581E0,3.8942719E0,1.7397537E0,4.1321468E-1,0E0,6.275828E0,4.9639683E0,2.080986E0,7.694149E-1,2.2233548E0,5.8151903E0,5.0631685E0,6.33972E0,5.8306875E0,6.0047884E0,1.8371305E0,6.4900894E0,3.5210094E0,2.7766323E0,7.3676705E0,4.9413548E0,6.008198E0,1.0103369E1,5.786882E0,7.364545E0,1.5863671E0,7.157135E-2,3.794338E0,4.363308E0,2.7431684E0,1.4605517E0,9.459759E0,7.5679893E0,0E0,0E0,0E0,0E0,0E0,0E0,0E0,0E0,0E0,0E0,0E0,0E0,0E0,0E0,0E0,0E0,0E0,0E0,0E0,0E0,0E0,0E0,0E0,0E0,0E0,0E0,0E0,0E0,0E0,0E0,0E0,0E0,0E0,0E0,0E0,0E0,0E0,0E0,0E0,0E0,0E0,0E0,0E0,0E0,0E0,0E0,0E0,0E0,0E0,0E0,0E0,0E0,0E0,0E0,0E0,0E0,0E0,0E0,0E0,0E0,0E0,0E0],"parents":[2147483647,0,0,1,1,2,2,3,3,4,4,5,5,6,6,7,7,8,8,9,9,10,10,11,11,12,12,13,13,14,14,15,15,16,16,17,17,18,18,19,19,20,20,21,21,22,22,23,23,24,24,25,25,26,26,27,27,28,28,29,29,30,30,31,31,32,32,33,33,35,35,36,36,37,37,38,38,39,39,40,40,41,41,42,42,43,43,44,44,45,45,46,46,47,47,48,48,49,49,50,50,51,51,52,52,53,53,54,54,55,55,56,56,57,57,58,58,59,59,60,60,61,61,62,62],"right_children":[2,4,6,8,10,12,14,16,18,20,22,24,26,28,30,32,34,36,38,40,42,44,46,48,50,52,54,56,58,60,62,64,66,68,-1,70,72,74,76,78,80,82,84,86,88,90,92,94,96,98,100,102,104,106,108,110,112,114,116,118,120,122,124,-1,-1,-1,-1,-1,-1,-1,-1,-1,-1,-1,-1,-1,-1,-1,-1,-1,-1,-1,-1,-1,-1,-1,-1,-1,-1,-1,-1,-1,-1,-1,-1,-1,-1,-1,-1,-1,-1,-1,-1,-1,-1,-1,-1,-1,-1,-1,-1,-1,-1,-1,-1,-1,-1,-1,-1,-1,-1,-1,-1,-1,-1],"split_conditions":[9.005292E1,4.1876835E1,4.2583272E-1,2.9879735E6,5.0064198E1,9.583407E4,9.59394E4,3.2864906E1,5.833939E1,-4.6599625E1,9.602998E4,-7.1573704E-1,5.4639088E1,-1.3459923E2,9.513352E4,6.6907024E-1,9.997416E-1,9.947043E4,-1.474014E1,1.702622E-2,1.0473105E5,9.551262E4,-4.8203148E1,9.6200664E4,5.1325832E1,1.0670086E5,9.6767055E4,4.8111603E1,9.523534E4,9.54546E4,9.670049E4,2.7720695E0,1.0416635E5,2.820882E6,-2.1741701E-2,5.60191E1,5.1059948E1,1.0014185E5,1.2745663E4,9.84814E4,5.182089E1,6.0828123E0,1.0494776E5,8.059827E1,9.5773875E4,4.9916908E-1,2.1617657E1,5.4537186E1,9.796899E4,1.8491087E1,1.0900774E2,1.06291914E5,1.0703465E5,1.2837406E0,9.755922E4,-1.5194582E2,4.5994396E1,6.3173617E4,1.16479935E2,1.3115974E2,3.1806108E-1,9.637361E4,1.0705003E5,-1.0937384E-2,-1.7426169E-2,-2.9098487E-2,1.8200617E-2,1.056223E-2,4.6861313E-2,4.5254987E-4,-1.3541889E-2,-9.6888235E-3,1.3770238E-2,-2.511671E-2,3.0110825E-2,-9.845799E-3,-2.9053468E-2,-3.5091208E-3,4.305282E-2,-4.988106E-3,6.8938187E-3,3.8827643E-2,2.6068644E-4,-3.232191E-2,-5.423839E-3,-8.665611E-3,2.0124407E-2,2.7000353E-2,-1.6628629E-2,-8.460923E-3,-2.55943E-2,-1.3800174E-3,-6.8585784E-3,2.7586421E-2,8.022563E-3,4.3789897E-2,-1.9774294E-2,1.6967833E-2,-1.8726407E-2,2.2421395E-2,-1.8946187E-3,5.2115708E-3,-2.896658E-2,3.012619E-2,-3.2630973E-3,9.944717E-3,-2.9358864E-2,1.8140435E-2,2.1723263E-5,-3.3402336E-3,4.1075293E-2,5.4151844E-2,1.7884107E-2,-2.7750406E-2,1.4306772E-2,1.01922685E-2,3.013896E-2,3.044239E-2,-2.5440266E-2,-3.098469E-2,3.2623631E-3,4.142699E-3,4.28687E-2,1.0364072E-2,4.8852783E-2],"split_indices":[33,33,50,52,31,22,2,7,29,29,39,30,31,29,40,50,47,22,30,50,20,43,29,36,7,39,22,7,39,43,26,30,0,52,0,32,29,0,45,43,34,46,43,33,21,47,29,7,39,46,29,26,21,30,39,29,32,45,34,4,49,0,22,0,0,0,0,0,0,0,0,0,0,0,0,0,0,0,0,0,0,0,0,0,0,0,0,0,0,0,0,0,0,0,0,0,0,0,0,0,0,0,0,0,0,0,0,0,0,0,0,0,0,0,0,0,0,0,0,0,0,0,0,0,0],"split_type":[0,0,0,0,0,0,0,0,0,0,0,0,0,0,0,0,0,0,0,0,0,0,0,0,0,0,0,0,0,0,0,0,0,0,0,0,0,0,0,0,0,0,0,0,0,0,0,0,0,0,0,0,0,0,0,0,0,0,0,0,0,0,0,0,0,0,0,0,0,0,0,0,0,0,0,0,0,0,0,0,0,0,0,0,0,0,0,0,0,0,0,0,0,0,0,0,0,0,0,0,0,0,0,0,0,0,0,0,0,0,0,0,0,0,0,0,0,0,0,0,0,0,0,0,0],"sum_hessian":[1.0922236E4,7.4113765E3,3.5108604E3,2.532921E3,4.8784556E3,2.3452898E3,1.1655707E3,1.1168158E3,1.4161051E3,2.3665684E3,2.5118872E3,3.0189096E2,2.0433988E3,1.7061124E2,9.949594E2,1.1094889E3,7.326942E0,1.3684707E3,4.763433E1,7.0220795E2,1.6643604E3,1.8516428E2,2.326723E3,1.3304422E2,1.6884676E2,1.4118878E3,6.315111E2,3.4409626E1,1.362016E2,2.8997253E1,9.6596216E2,1.057296E3,5.219286E1,5.69302E0,1.6339223E0,4.7412802E2,8.943427E2,4.8310194E0,4.280331E1,1.4860671E1,6.873472E2,1.5057777E3,1.5858264E2,1.1783747E2,6.732681E1,7.471101E1,2.252012E3,9.330676E1,3.9737453E1,5.7877163E1,1.1096959E2,1.3168425E3,9.5045235E1,4.754636E1,5.839647E2,7.3127227E0,2.7096905E1,1.95536E1,1.16648E2,7.650014E0,2.134724E1,6.927815E1,8.96684E2,7.054746E2,3.5182144E2,5.0811638E1,1.3812201E0,1.7834381E0,3.9095817E0,3.7313348E2,1.0099453E2,8.7203674E2,2.2305996E1,2.4737213E0,2.3572981E0,7.6718173E0,3.5131493E1,3.0246866E0,1.1835984E1,1.2525712E2,5.6209015E2,7.558779E0,1.4982189E3,2.5371899E1,1.3321074E2,9.740182E1,2.043565E1,5.8929405E1,8.397407E0,2.4469923E1,5.024109E1,9.023054E2,1.3497064E3,4.568392E1,4.7622837E1,3.8484795E1,1.2526612E0,2.3473692E1,3.440347E1,8.3399216E1,2.7570374E1,1.3048354E3,1.2007042E1,5.8893044E1,3.6152187E1,1.203213E1,3.551423E1,6.1832184E1,5.2213257E2,3.0125587E0,4.3001637E0,2.570258E1,1.3943262E0,9.626494E0,9.927105E0,4.7338394E1,6.930961E1,5.142297E0,2.5077167E0,1.78322E1,3.5150404E0,2.4374573E1,4.490358E1,8.846423E2,1.2041742E1],"tree_param":{"num_deleted":"0","num_feature":"55","num_nodes":"125","size_leaf_vector":"1"}},{"base_weights":[-3.1081925E-3,-1.4115033E-1,9.144551E-2,-1.9871978E-1,-7.7305995E-2,5.165719E-2,1.614316E-1,-2.0331003E-1,6.789432E-1,-2.7002397E-1,-6.476033E-2,-7.142425E-2,7.2231084E-2,3.5233942E-1,1.4649652E-1,-2.3154259E-1,-7.609203E-2,4.5554947E-2,1.6037844E-1,2.2111374E-1,-3.9573315E-1,2.4046654E-1,-7.2468475E-2,-8.358003E-2,6.4534956E-1,6.095555E-2,2.732088E-1,-4.1678697E-1,4.0830383E-1,8.21065E-2,1.7891939E-1,-2.8688982E-1,-1.7824341E-1,6.957629E-1,-9.897656E-2,-1.9574871E-2,4.4455385E-1,-3.456556E-1,6.616286E-1,-5.4671E-1,-2.9152483E-1,6.646333E-1,-9.009024E-3,-1.2555116E-1,-3.0280983E-2,4.859678E-1,-9.487318E-2,-1.9986026E-2,8.429647E-1,8.933693E-2,2.5078102E-3,4.7720587E-1,1.7155461E-2,-3.0958885E-2,-2.6125985E-3,2.2601031E-1,6.3914025E-1,7.606653E-1,7.031748E-2,-1.2854423E-1,1.9453415E-1,3.562522E-2,-1.4638235E-2,-9.96468E-3,1.3338696E-3,-5.930615E-3,4.2075366E-2,1.745671E-2,-6.564477E-3,-2.740931E-4,3.4294497E-2,-2.7024359E-2,1.8034894E-2,3.8985416E-2,-1.9321749E-2,-3.125083E-2,-6.955401E-3,1.1222429E-2,-1.7382672E-2,4.3289874E-2,-1.4208741E-2,-6.166397E-3,3.728811E-2,-3.484418E-3,-1.2286012E-2,1.7627204E-3,-4.544487E-3,-2.1570673E-2,3.4039035E-2,-2.9985351E-2,-4.001653E-3,4.927327E-2,9.685702E-3,8.41193E-4,6.2155607E-3,6.3184514E-3,-1.936825E-3,-1.370887E-2,2.7695972E-2,-3.7646506E-3,3.2818347E-2,-2.3789892E-2,2.51995E-2,1.459604E-2,-1.4920148E-2,5.0013727E-3,3.5865735E-2,-1.9360961E-2,4.610998E-2,-4.2143753E-3,5.9623476E-3,-1.4671427E-2,1.24053415E-2,1.6852027E-2,8.6075915E-3],"categories":[],"categories_nodes":[],"categories_segments":[],"categories_sizes":[],"default_left":[0,0,0,0,0,0,0,0,0,0,0,0,0,0,0,0,0,0,0,0,0,0,0,0,0,0,0,0,0,0,0,0,0,0,0,0,0,0,0,0,0,0,0,0,0,0,0,0,0,0,0,0,0,0,0,0,0,0,0,0,0,0,0,0,0,0,0,0,0,0,0,0,0,0,0,0,0,0,0,0,0,0,0,0,0,0,0,0,0,0,0,0,0,0,0,0,0,0,0,0,0,0,0,0,0,0,0,0,0,0,0,0,0,0,0],"id":15,"left_children":[1,3,5,7,9,11,13,15,17,19,21,23,25,27,29,31,33,-1,35,37,39,41,43,45,47,49,51,53,55,57,59,61,63,65,67,-1,69,71,73,75,77,79,81,83,85,87,89,-1,91,93,95,97,99,-1,101,103,105,107,109,111,113,-1,-1,-1,-1,-1,-1,-1,-1,-1,-1,-1,-1,-1,-1,-1,-1,-1,-1,-1,-1,-1,-1,-1,-1,-1,-1,-1,-1,-1,-1,-1,-1,-1,-1,-1,-1,-1,-1,-1,-1,-1,-1,-1,-1,-1,-1,-1,-1,-1,-1,-1,-1,-1,-1],"loss_changes":[1.4217046E2,1.6259209E1,1.7992695E1,9.515694E0,5.062625E0,1.0445263E1,6.627655E0,8.302101E0,1.3396173E0,7.9968596E0,4.66183E0,5.2029657E0,7.989292E0,7.4556313E0,4.5247E0,5.539612E0,7.5261345E0,0E0,9.6290886E-1,6.9070654E0,1.4510174E0,5.1758747E0,4.3097553E0,3.7894807E0,2.395905E0,5.551011E0,9.779943E0,1.0022099E0,6.5160465E0,5.7864995E0,6.9638557E0,5.657707E0,4.1813316E0,1.5574932E0,5.9956303E0,0E0,4.152419E-1,1.8952276E0,2.2063785E0,1.2107325E0,1.8939037E0,3.7019677E0,2.8314474E0,5.706608E0,4.2713504E0,2.3451798E0,4.233674E0,0E0,6.1456394E-1,5.710724E0,5.598144E0,6.1615124E0,5.0210185E0,0E0,1.4228436E0,3.1974535E0,2.848669E0,2.6498418E0,5.446639E0,4.4483423E0,4.330406E0,0E0,0E0,0E0,0E0,0E0,0E0,0E0,0E0,0E0,0E0,0E0,0E0,0E0,0E0,0E0,0E0,0E0,0E0,0E0,0E0,0E0,0E0,0E0,0E0,0E0,0E0,0E0,0E0,0E0,0E0,0E0,0E0,0E0,0E0,0E0,0E0,0E0,0E0,0E0,0E0,0E0,0E0,0E0,0E0,0E0,0E0,0E0,0E0,0E0,0E0,0E0,0E0,0E0,0E0],"parents":[2147483647,0,0,1,1,2,2,3,3,4,4,5,5,6,6,7,7,8,8,9,9,10,10,11,11,12,12,13,13,14,14,15,15,16,16,18,18,19,19,20,20,21,21,22,22,23,23,24,24,25,25,26,26,27,27,28,28,29,29,30,30,31,31,32,32,33,33,34,34,36,36,37,37,38,38,39,39,40,40,41,41,42,42,43,43,44,44,45,45,46,46,48,48,49,49,50,50,51,51,52,52,54,54,55,55,56,56,57,57,58,58,59,59,60,60],"right_children":[2,4,6,8,10,12,14,16,18,20,22,24,26,28,30,32,34,-1,36,38,40,42,44,46,48,50,52,54,56,58,60,62,64,66,68,-1,70,72,74,76,78,80,82,84,86,88,90,-1,92,94,96,98,100,-1,102,104,106,108,110,112,114,-1,-1,-1,-1,-1,-1,-1,-1,-1,-1,-1,-1,-1,-1,-1,-1,-1,-1,-1,-1,-1,-1,-1,-1,-1,-1,-1,-1,-1,-1,-1,-1,-1,-1,-1,-1,-1,-1,-1,-1,-1,-1,-1,-1,-1,-1,-1,-1,-1,-1,-1,-1,-1,-1],"split_conditions":[5.7846535E1,4.0255752E6,1.1109948E2,1.0710323E5,9.593351E4,4.237025E1,2.8793985E1,1.3937245E1,3.7072567E1,9.516431E4,9.633163E4,4.7821884E1,1.0900774E2,9.51423E4,3.280748E1,1.9264844E4,1.3135676E1,4.5554947E-2,1.0715235E5,9.482001E4,4.989634E1,9.4201594E5,1.10081835E1,9.5157086E4,-1.5015692E2,5.6800095E6,9.1379364E1,3.354913E1,3.205115E1,9.4792055E4,9.4636164E4,-6.582732E1,1.022379E5,2.2470766E1,9.5717875E4,-1.9574871E-2,2.0502895E1,3.0337942E-1,5.7065205E1,5.7E1,4.6416912E1,4.5521225E1,5.711134E-1,2.8082253E1,1.0055261E5,2.4133769E-1,9.491405E4,-1.9986026E-2,3.1336E1,9.745779E4,1.4391728E1,9.5708E4,7.2070145E1,-3.0958885E-2,1.0003E2,2.3809188E7,1.6985248E6,1.3471564E2,9.734459E4,5.4375255E6,9.633163E4,3.562522E-2,-1.4638235E-2,-9.96468E-3,1.3338696E-3,-5.930615E-3,4.2075366E-2,1.745671E-2,-6.564477E-3,-2.740931E-4,3.4294497E-2,-2.7024359E-2,1.8034894E-2,3.8985416E-2,-1.9321749E-2,-3.125083E-2,-6.955401E-3,1.1222429E-2,-1.7382672E-2,4.3289874E-2,-1.4208741E-2,-6.166397E-3,3.728811E-2,-3.484418E-3,-1.2286012E-2,1.7627204E-3,-4.544487E-3,-2.1570673E-2,3.4039035E-2,-2.9985351E-2,-4.001653E-3,4.927327E-2,9.685702E-3,8.41193E-4,6.2155607E-3,6.3184514E-3,-1.936825E-3,-1.370887E-2,2.7695972E-2,-3.7646506E-3,3.2818347E-2,-2.3789892E-2,2.51995E-2,1.459604E-2,-1.4920148E-2,5.0013727E-3,3.5865735E-2,-1.9360961E-2,4.610998E-2,-4.2143753E-3,5.9623476E-3,-1.4671427E-2,1.24053415E-2,1.6852027E-2,8.6075915E-3],"split_indices":[34,52,33,27,1,32,31,46,34,37,36,46,29,2,4,45,7,0,3,2,34,53,46,22,28,51,33,32,32,19,22,28,37,33,21,0,7,48,34,6,33,29,49,7,19,47,37,0,4,38,46,3,7,0,6,52,53,33,36,53,36,0,0,0,0,0,0,0,0,0,0,0,0,0,0,0,0,0,0,0,0,0,0,0,0,0,0,0,0,0,0,0,0,0,0,0,0,0,0,0,0,0,0,0,0,0,0,0,0,0,0,0,0,0,0],"split_type":[0,0,0,0,0,0,0,0,0,0,0,0,0,0,0,0,0,0,0,0,0,0,0,0,0,0,0,0,0,0,0,0,0,0,0,0,0,0,0,0,0,0,0,0,0,0,0,0,0,0,0,0,0,0,0,0,0,0,0,0,0,0,0,0,0,0,0,0,0,0,0,0,0,0,0,0,0,0,0,0,0,0,0,0,0,0,0,0,0,0,0,0,0,0,0,0,0,0,0,0,0,0,0,0,0,0,0,0,0,0,0,0,0,0,0],"sum_hessian":[1.0890301E4,4.4268706E3,6.46343E3,2.3267188E3,2.1001519E3,4.1218335E3,2.341597E3,2.3153774E3,1.1341264E1,1.271064E2,1.9730455E3,5.899629E2,3.5318706E3,1.6825713E2,2.1733398E3,1.894193E3,4.2118445E2,7.3111706E0,4.0300927E0,2.5748755E1,1.0135764E2,4.785583E1,1.9251897E3,5.809932E2,8.969682E0,3.345481E3,1.8638951E2,1.0975266E1,1.5728186E2,7.290397E2,1.4443E3,9.270931E2,9.670999E2,1.1281344E1,4.099031E2,1.2414684E0,2.7886243E0,1.1354857E1,1.4393897E1,3.9656727E1,6.170092E1,1.710656E1,3.0749271E1,8.516365E2,1.0735532E3,1.0478895E1,5.7051434E2,1.2637467E0,7.705935E0,2.2516055E3,1.0938755E3,1.03259346E2,8.3130165E1,7.0400853E0,3.9351814E0,8.8987076E1,6.829478E1,1.13649845E1,7.176747E2,6.945522E1,1.3748448E3,4.715073E0,9.22378E2,8.770352E2,9.006472E1,1.740747E0,9.540598E0,2.6910347E1,3.8299277E2,1.3145603E0,1.474064E0,9.084049E0,2.2708082E0,1.3166542E1,1.2273549E0,3.2818413E1,6.838317E0,5.759228E0,5.594169E1,1.4186301E1,2.9202588E0,2.743111E1,3.31816E0,5.824526E2,2.691839E2,5.160135E2,5.5753973E2,1.6227598E0,8.856135E0,1.5166508E1,5.5534784E2,5.894361E0,1.811574E0,7.3311035E2,1.5184951E3,2.727408E2,8.211347E2,9.327322E0,9.393203E1,7.339704E1,9.733127E0,2.0661392E0,1.8690423E0,7.944538E1,9.541695E0,8.937674E0,5.9357105E1,1.229668E0,1.0135317E1,1.7235455E2,5.453201E2,4.846148E1,2.0993742E1,1.8471596E2,1.1901289E3],"tree_param":{"num_deleted":"0","num_feature":"55","num_nodes":"115","size_leaf_vector":"1"}},{"base_weights":[1.0102625E-2,-3.491235E-2,3.2385686E-1,1.1083983E0,-3.442888E-2,3.7691418E-2,1.1195371E0,2.539778E-1,-2.5671384E-1,5.6417365E-2,3.0104983E-1,-3.2183117E-1,5.1898366E-1,-5.40845E-1,-4.6826765E-2,4.827286E-1,-1.7511176E-1,-3.0487856E-2,1.2029718E-2,4.019055E-2,3.3222248E-3,-4.6818972E-5,-3.230416E-2,3.361472E-2,-2.1632252E-2,2.8466849E-2,-2.5673984E-2,1.0591505E-2,-2.1211458E-2],"categories":[],"categories_nodes":[],"categories_segments":[],"categories_sizes":[],"default_left":[0,0,0,0,0,0,0,0,0,0,0,0,0,0,0,0,0,0,0,0,0,0,0,0,0,0,0,0,0],"id":16,"left_children":[1,-1,3,5,-1,7,9,11,13,-1,15,17,19,21,23,25,27,-1,-1,-1,-1,-1,-1,-1,-1,-1,-1,-1,-1],"loss_changes":[2.408584E3,0E0,5.966426E3,5.0429688E1,0E0,2.9056284E0,2.9862305E1,4.1677375E0,1.130969E0,0E0,4.0610456E0,1.5848067E0,2.310227E0,4.6206832E-1,3.6886463E0,3.1860094E0,1.3843061E0,0E0,0E0,0E0,0E0,0E0,0E0,0E0,0E0,0E0,0E0,0E0,0E0],"parents":[2147483647,0,0,2,2,3,3,5,5,6,6,7,7,8,8,10,10,11,11,12,12,13,13,14,14,15,15,16,16],"right_children":[2,-1,4,6,-1,8,10,12,14,-1,16,18,20,22,24,26,28,-1,-1,-1,-1,-1,-1,-1,-1,-1,-1,-1,-1],"split_conditions":[-5.090615E-4,-3.491235E-2,5.0660834E-4,-4.9510685E-4,-3.442888E-2,2.5847557E0,4.936283E-4,-3.5849697E1,5.4526684E1,5.6417365E-2,1.999431E1,-1.335313E1,2.1037088E1,4.197043E1,2.1617657E1,6.251748E1,9.707199E4,-3.0487856E-2,1.2029718E-2,4.019055E-2,3.3222248E-3,-4.6818972E-5,-3.230416E-2,3.361472E-2,-2.1632252E-2,2.8466849E-2,-2.5673984E-2,1.0591505E-2,-2.1211458E-2],"split_indices":[12,0,12,12,0,30,12,28,31,0,4,30,29,32,29,31,1,0,0,0,0,0,0,0,0,0,0,0,0],"split_type":[0,0,0,0,0,0,0,0,0,0,0,0,0,0,0,0,0,0,0,0,0,0,0,0,0,0,0,0,0],"sum_hessian":[1.0835368E4,3.325746E3,7.5096216E3,4.2309434E3,3.278678E3,4.3607628E1,4.187336E3,2.5218237E1,1.8389393E1,4.142369E3,4.4966763E1,7.880635E0,1.7337603E1,7.1429315E0,1.1246461E1,3.2538105E1,1.24286585E1,5.156619E0,2.7240157E0,1.0164106E1,7.173496E0,1.3297501E0,5.8131814E0,3.6677246E0,7.5787363E0,3.0329788E1,2.2083156E0,4.9264007E0,7.5022583E0],"tree_param":{"num_deleted":"0","num_feature":"55","num_nodes":"29","size_leaf_vector":"1"}},{"base_weights":[-2.6231864E-3,-6.986051E-1,1.1479199E0,-3.5407923E-2,-3.4424778E-2,3.2613683E-1,5.786238E-2,-1.921924E-1,4.5855874E-1,2.1493271E-1,-3.0199645E-2,6.848471E-1,4.6622064E-2,-2.5398066E-2,3.875528E-2,9.107794E-1,3.4816077E-1,6.352173E-1,-4.3396416E-1,5.0503056E-2,-5.9689063E-4,-1.9723399E-2,3.9811578E-2,4.8954982E-2,8.059014E-3,-3.1754483E-2,9.747527E-3],"categories":[],"categories_nodes":[],"categories_segments":[],"categories_sizes":[],"default_left":[0,0,0,0,0,0,0,0,0,0,0,0,0,0,0,0,0,0,0,0,0,0,0,0,0,0,0],"id":17,"left_children":[1,3,5,-1,-1,7,-1,9,11,13,-1,15,17,-1,-1,19,21,23,25,-1,-1,-1,-1,-1,-1,-1,-1],"loss_changes":[8.672074E3,1.6381836E-1,3.0911621E1,0E0,0E0,3.3281608E0,0E0,1.8583913E0,3.5004292E0,2.7918713E0,0E0,1.537857E0,4.379764E0,0E0,0E0,1.2922087E0,4.111211E0,9.714484E-1,1.2092706E0,0E0,0E0,0E0,0E0,0E0,0E0,0E0,0E0],"parents":[2147483647,0,0,1,1,2,2,5,5,7,7,8,8,9,9,11,11,12,12,15,15,16,16,17,17,18,18],"right_children":[2,4,6,-1,-1,8,-1,10,12,14,-1,16,18,-1,-1,20,22,24,26,-1,-1,-1,-1,-1,-1,-1,-1],"split_conditions":[4.936283E-4,-4.9510685E-4,5.0660834E-4,-3.5407923E-2,-3.4424778E-2,3.4259636E1,5.786238E-2,2.8731138E1,2.4983233E-1,2.656556E1,-3.0199645E-2,1.5055088E6,3.1585637E-1,-2.5398066E-2,3.875528E-2,1.0141729E5,2.220206E6,1.705841E-1,5.470271E1,5.0503056E-2,-5.9689063E-4,-1.9723399E-2,3.9811578E-2,4.8954982E-2,8.059014E-3,-3.1754483E-2,9.747527E-3],"split_indices":[12,12,12,0,0,33,0,33,48,33,0,53,47,0,0,18,53,49,32,0,0,0,0,0,0,0,0],"split_type":[0,0,0,0,0,0,0,0,0,0,0,0,0,0,0,0,0,0,0,0,0,0,0,0,0,0,0],"sum_hessian":[1.0827841E4,6.7469155E3,4.0809248E3,3.4333975E3,3.3135183E3,4.620449E1,4.0347205E3,9.310344E0,3.6894146E1,4.922147E0,4.3881974E0,2.3385391E1,1.3508756E1,2.189648E0,2.732499E0,1.2974061E1,1.041133E1,5.9274235E0,7.5813327E0,1.1628236E1,1.3458252E0,3.9628937E0,6.4484367E0,2.8178272E0,3.109596E0,5.736875E0,1.844458E0],"tree_param":{"num_deleted":"0","num_feature":"55","num_nodes":"27","size_leaf_vector":"1"}},{"base_weights":[-3.316954E-3,1.1539371E0,-3.489028E-2,5.8005977E-2,5.8719957E-1,2.446161E-1,7.5221556E-1,-2.7138531E-2,4.3486324E-1,-7.2030746E-3,8.1391025E-1,8.231848E-1,1.1528167E-1,9.924243E-1,5.297925E-1,-2.2215753E-4,5.2878212E-2,-2.8841356E-2,3.0351205E-2,5.4208208E-2,8.869401E-3,-2.266944E-2,3.4114014E-2],"categories":[],"categories_nodes":[],"categories_segments":[],"categories_sizes":[],"default_left":[0,0,0,0,0,0,0,0,0,0,0,0,0,0,0,0,0,0,0,0,0,0,0],"id":18,"left_children":[1,3,-1,-1,5,7,9,-1,11,-1,13,15,17,19,21,-1,-1,-1,-1,-1,-1,-1,-1],"loss_changes":[8.752708E3,1.3629883E1,0E0,0E0,2.4221287E0,2.7030118E0,1.8110447E0,0E0,1.6200566E0,0E0,9.354E-1,1.1832681E0,3.325849E0,1.0449677E0,2.2975738E0,0E0,0E0,0E0,0E0,0E0,0E0,0E0,0E0],"parents":[2147483647,0,0,1,1,4,4,5,5,6,6,8,8,10,10,11,11,12,12,13,13,14,14],"right_children":[2,4,-1,-1,6,8,10,-1,12,-1,14,16,18,20,22,-1,-1,-1,-1,-1,-1,-1,-1],"split_conditions":[-4.9510685E-4,-5.090615E-4,-3.489028E-2,5.8005977E-2,8.60449E0,9.744803E4,6.7535794E5,-2.7138531E-2,1.0014185E5,-7.2030746E-3,2.307151E1,3.7072567E1,3.1825536E-1,2.1583057E1,1.306E1,-2.2215753E-4,5.2878212E-2,-2.8841356E-2,3.0351205E-2,5.4208208E-2,8.869401E-3,-2.266944E-2,3.4114014E-2],"split_indices":[12,12,0,0,4,19,53,0,0,0,4,34,50,30,6,0,0,0,0,0,0,0,0],"split_type":[0,0,0,0,0,0,0,0,0,0,0,0,0,0,0,0,0,0,0,0,0,0,0],"sum_hessian":[1.0888518E4,4.0834463E3,6.805071E3,4.038346E3,4.510033E1,1.546871E1,2.963162E1,2.6496158E0,1.2819094E1,1.8223367E0,2.7809284E1,5.075755E0,7.743339E0,1.554758E1,1.2261704E1,1.3367034E0,3.7390516E0,3.1445198E0,4.5988193E0,1.3677811E1,1.8697683E0,1.3814402E0,1.0880264E1],"tree_param":{"num_deleted":"0","num_feature":"55","num_nodes":"23","size_leaf_vector":"1"}},{"base_weights":[6.9704484E-3,-3.4698255E-2,3.2025397E-1,1.0640061E0,-3.379826E-2,4.4621076E-2,1.0749899E0,4.445158E-1,-1.2812193E-1,5.4149743E-2,2.9724175E-1,7.119539E-1,1.1158275E-1,-5.6969416E-1,5.6067012E-2,4.3579882E-1,-3.9085528E-1,4.4734817E-2,-2.9288798E-3,3.823572E-2,-8.31934E-3,-4.82801E-3,-3.2919858E-2,1.0362946E-2,-2.2586336E-2,2.64296E-2,-1.775732E-2,1.9805951E-2,-3.0773679E-2],"categories":[],"categories_nodes":[],"categories_segments":[],"categories_sizes":[],"default_left":[0,0,0,0,0,0,0,0,0,0,0,0,0,0,0,0,0,0,0,0,0,0,0,0,0,0,0,0,0],"id":19,"left_children":[1,-1,3,5,-1,7,9,11,13,-1,15,17,19,21,23,25,27,-1,-1,-1,-1,-1,-1,-1,-1,-1,-1,-1,-1],"loss_changes":[2.3539006E3,0E0,5.4898184E3,4.744873E1,0E0,3.2527752E0,2.5806152E1,1.1830966E0,2.722727E0,0E0,4.3779516E0,1.1334529E0,1.4892739E0,3.4887218E-1,1.9558699E0,2.918592E0,1.6445707E0,0E0,0E0,0E0,0E0,0E0,0E0,0E0,0E0,0E0,0E0,0E0,0E0],"parents":[2147483647,0,0,2,2,3,3,5,5,6,6,7,7,8,8,10,10,11,11,12,12,13,13,14,14,15,15,16,16],"right_children":[2,-1,4,6,-1,8,10,12,14,-1,16,18,20,22,24,26,28,-1,-1,-1,-1,-1,-1,-1,-1,-1,-1,-1,-1],"split_conditions":[-5.090615E-4,-3.4698255E-2,5.0660834E-4,-4.9510685E-4,-3.379826E-2,3.9927895E1,4.936283E-4,4.0395725E-1,2.0911753E-4,5.4149743E-2,9.269222E6,4.180602E-4,-2.6541896E0,-3.1047768E1,5.9851456E1,6.251748E1,6.345178E-5,4.4734817E-2,-2.9288798E-3,3.823572E-2,-8.31934E-3,-4.82801E-3,-3.2919858E-2,1.0362946E-2,-2.2586336E-2,2.64296E-2,-1.775732E-2,1.9805951E-2,-3.0773679E-2],"split_indices":[12,0,12,12,0,34,12,50,48,0,52,48,30,30,31,31,49,0,0,0,0,0,0,0,0,0,0,0,0],"split_type":[0,0,0,0,0,0,0,0,0,0,0,0,0,0,0,0,0,0,0,0,0,0,0,0,0,0,0,0,0],"sum_hessian":[1.07174375E4,3.3101487E3,7.407289E3,4.240998E3,3.1662908E3,4.5263294E1,4.195735E3,1.3179616E1,3.208368E1,4.1526025E3,4.3132427E1,6.6773844E0,6.5022316E0,8.827575E0,2.3256104E1,3.6208122E1,6.924305E0,5.26708E0,1.4103045E0,1.4184039E0,5.083828E0,1.7234449E0,7.10413E0,1.8376484E1,4.8796206E0,3.270311E1,3.5050118E0,1.3679665E0,5.5563383E0],"tree_param":{"num_deleted":"0","num_feature":"55","num_nodes":"29","size_leaf_vector":"1"}},{"base_weights":[-7.938116E-3,-6.90253E-1,1.1023593E0,-3.5171982E-2,-3.3804882E-2,3.3117348E-1,5.5507895E-2,-1.2744647E-1,5.008517E-1,-3.158469E-1,3.8388003E-2,5.3913254E-2,3.7013856E-1,-5.329879E-1,2.4111502E-1,2.1858628E-1,4.4450846E-2,-3.191129E-2,6.725357E-5,2.0322876E-2,-1.2693325E-3,2.3909317E-2,-1.0882957E-2],"categories":[],"categories_nodes":[],"categories_segments":[],"categories_sizes":[],"default_left":[0,0,0,0,0,0,0,0,0,0,0,0,0,0,0,0,0,0,0,0,0,0,0],"id":20,"left_children":[1,3,5,-1,-1,7,-1,9,11,13,-1,-1,15,17,19,21,-1,-1,-1,-1,-1,-1,-1],"loss_changes":[8.1250215E3,7.644043E-1,2.4184082E1,0E0,0E0,3.355043E0,0E0,2.3033214E0,1.9462781E0,1.4350296E0,0E0,0E0,1.9179764E0,4.554515E-1,1.7418674E-1,2.6086302E0,0E0,0E0,0E0,0E0,0E0,0E0,0E0],"parents":[2147483647,0,0,1,1,2,2,5,5,7,7,8,8,9,9,12,12,13,13,14,14,15,15],"right_children":[2,4,6,-1,-1,8,-1,10,12,14,-1,-1,16,18,20,22,-1,-1,-1,-1,-1,-1,-1],"split_conditions":[4.936283E-4,-4.9510685E-4,5.0660834E-4,-3.5171982E-2,-3.3804882E-2,9.696E4,5.5507895E-2,5.88084E1,9.8107664E4,5.8802425E1,3.8388003E-2,5.3913254E-2,3.100149E1,5.9574884E-1,2.307151E1,6.239547E1,4.4450846E-2,-3.191129E-2,6.725357E-5,2.0322876E-2,-1.2693325E-3,2.3909317E-2,-1.0882957E-2],"split_indices":[12,12,12,0,0,1,0,31,39,7,0,0,4,50,4,34,0,0,0,0,0,0,0],"split_type":[0,0,0,0,0,0,0,0,0,0,0,0,0,0,0,0,0,0,0,0,0,0,0],"sum_hessian":[1.0723071E4,6.641825E3,4.0812458E3,3.4133699E3,3.2284556E3,4.1293797E1,4.039952E3,1.121902E1,3.0074776E1,9.803093E0,1.4159273E0,4.2133946E0,2.586138E1,7.084231E0,2.718862E0,2.1115345E1,4.746034E0,5.7561173E0,1.3281137E0,1.353788E0,1.3650742E0,1.317754E1,7.9378057E0],"tree_param":{"num_deleted":"0","num_feature":"55","num_nodes":"23","size_leaf_vector":"1"}},{"base_weights":[-6.8069546E-4,-1.3407455E-1,9.365485E-2,-1.9384229E-1,-7.625187E-2,5.7400297E-2,1.5681022E-1,-1.9746754E-1,5.2266514E-1,-1.0351058E-1,-6.3745887E-3,-5.407943E-2,7.798172E-2,2.2244288E-1,9.7521126E-2,-2.9267478E-1,-1.7070316E-1,7.795567E-1,-2.2766426E-2,-1.2212126E-1,1.10496245E-2,8.9185424E-2,-8.264569E-2,-1.0081111E-1,1.1135235E-1,-9.297697E-3,1.1292911E-1,-5.13007E-2,2.5644675E-1,2.3562161E-2,1.6281274E-1,5.5902284E-1,-3.1253508E-1,-2.877249E-1,-1.2976009E-1,4.5073282E-2,8.770579E-3,3.8531086E-1,-1.2748148E-1,3.906951E-1,-7.222682E-3,-3.4174392E-1,1.3641463E-1,-1.13057435E-1,3.3623064E-1,-1.5422514E-1,1.2336364E-1,-4.591047E-1,1.7971094E-1,4.4865064E-2,-1.3984223E-1,9.730973E-2,3.61762E-1,-1.14830986E-1,6.05802E-1,5.2994996E-1,2.1875377E-1,7.2169656E-1,7.2472407E-3,-1.3309546E-2,2.3345886E-1,-1.8611696E-2,3.5327915E-2,1.0897652E-2,-1.6503977E-2,-1.5872067E-2,1.3918557E-3,-8.645452E-3,-3.6222746E-3,4.8754454E-2,-1.2592675E-2,-5.353845E-3,-1.2460445E-2,-2.070701E-2,2.8867735E-2,-1.7054165E-2,1.5647756E-3,1.3647469E-2,-2.6397422E-2,5.3327642E-3,4.0750522E-2,2.053321E-2,-6.756305E-3,-3.834974E-3,2.9043082E-2,-4.1451114E-3,-1.56639E-2,1.1815759E-2,-1.9520743E-2,-2.8200045E-2,1.0620738E-2,4.5708798E-2,5.5841585E-3,6.68887E-3,-3.8143129E-3,-1.6640255E-2,-2.8749628E-3,2.2891425E-2,4.3998025E-3,2.047487E-2,-1.1718905E-2,1.4107855E-2,-1.0177939E-2,-1.6138014E-4,3.989638E-2,-5.577275E-3,3.197831E-2,3.0923193E-2,9.151491E-3,4.204914E-2,4.4432E-3,-1.9845411E-2,1.2558212E-3,-8.3336225E-3,8.779081E-3,-1.5719103E-2,1.3289577E-2],"categories":[],"categories_nodes":[],"categories_segments":[],"categories_sizes":[],"default_left":[0,0,0,0,0,0,0,0,0,0,0,0,0,0,0,0,0,0,0,0,0,0,0,0,0,0,0,0,0,0,0,0,0,0,0,0,0,0,0,0,0,0,0,0,0,0,0,0,0,0,0,0,0,0,0,0,0,0,0,0,0,0,0,0,0,0,0,0,0,0,0,0,0,0,0,0,0,0,0,0,0,0,0,0,0,0,0,0,0,0,0,0,0,0,0,0,0,0,0,0,0,0,0,0,0,0,0,0,0,0,0,0,0,0,0,0,0],"id":21,"left_children":[1,3,5,7,9,11,13,15,17,19,21,23,25,27,29,31,33,35,-1,37,39,41,43,45,47,49,51,53,55,57,59,61,63,65,67,-1,-1,69,71,73,75,77,79,81,83,85,87,89,91,93,95,97,99,101,103,105,107,109,111,113,115,-1,-1,-1,-1,-1,-1,-1,-1,-1,-1,-1,-1,-1,-1,-1,-1,-1,-1,-1,-1,-1,-1,-1,-1,-1,-1,-1,-1,-1,-1,-1,-1,-1,-1,-1,-1,-1,-1,-1,-1,-1,-1,-1,-1,-1,-1,-1,-1,-1,-1,-1,-1,-1,-1,-1,-1],"loss_changes":[1.3493604E2,1.5336266E1,1.4372585E1,5.7751083E0,4.3028803E0,9.16341E0,8.889824E0,5.488022E0,3.1855805E0,3.4664745E0,4.636244E0,4.8254757E0,1.0280891E1,1.0123234E1,5.81491E0,8.217697E0,8.102119E0,5.262065E-1,0E0,3.8521862E0,1.5847886E0,5.793794E0,4.5438805E0,5.8394923E0,5.4498205E0,6.826263E0,9.318647E0,5.114263E0,9.84568E0,6.44334E0,7.96402E0,1.8009536E0,4.4025497E0,4.1301765E0,3.1043396E0,0E0,0E0,5.8313046E0,3.4117546E0,1.8150294E0,2.8212624E0,3.369214E0,5.066836E0,3.8755774E0,2.488524E0,4.4322615E0,5.552472E0,1.1770921E0,6.0749054E0,7.3616223E0,4.4788084E0,7.5680637E0,4.13056E0,3.968348E0,1.267775E0,8.251926E0,1.2037716E1,9.0046215E-1,4.0126643E0,5.3629603E0,8.173258E0,0E0,0E0,0E0,0E0,0E0,0E0,0E0,0E0,0E0,0E0,0E0,0E0,0E0,0E0,0E0,0E0,0E0,0E0,0E0,0E0,0E0,0E0,0E0,0E0,0E0,0E0,0E0,0E0,0E0,0E0,0E0,0E0,0E0,0E0,0E0,0E0,0E0,0E0,0E0,0E0,0E0,0E0,0E0,0E0,0E0,0E0,0E0,0E0,0E0,0E0,0E0,0E0,0E0,0E0,0E0,0E0],"parents":[2147483647,0,0,1,1,2,2,3,3,4,4,5,5,6,6,7,7,8,8,9,9,10,10,11,11,12,12,13,13,14,14,15,15,16,16,17,17,19,19,20,20,21,21,22,22,23,23,24,24,25,25,26,26,27,27,28,28,29,29,30,30,31,31,32,32,33,33,34,34,37,37,38,38,39,39,40,40,41,41,42,42,43,43,44,44,45,45,46,46,47,47,48,48,49,49,50,50,51,51,52,52,53,53,54,54,55,55,56,56,57,57,58,58,59,59,60,60],"right_children":[2,4,6,8,10,12,14,16,18,20,22,24,26,28,30,32,34,36,-1,38,40,42,44,46,48,50,52,54,56,58,60,62,64,66,68,-1,-1,70,72,74,76,78,80,82,84,86,88,90,92,94,96,98,100,102,104,106,108,110,112,114,116,-1,-1,-1,-1,-1,-1,-1,-1,-1,-1,-1,-1,-1,-1,-1,-1,-1,-1,-1,-1,-1,-1,-1,-1,-1,-1,-1,-1,-1,-1,-1,-1,-1,-1,-1,-1,-1,-1,-1,-1,-1,-1,-1,-1,-1,-1,-1,-1,-1,-1,-1,-1,-1,-1,-1,-1],"split_conditions":[5.894535E1,3.9687848E6,1.1136299E2,1.0710323E5,5.5078102E1,4.237025E1,3.257453E-1,-7.516836E0,-5.7791924E0,1.957552E1,1.00078766E5,1.0036862E2,9.741789E4,9.569361E4,4.458119E1,9.577088E4,2.354678E1,3.7072567E1,-2.2766426E-2,1.6363241E1,9.54602E4,9.601148E4,6.8353814E-1,1.0354822E5,9.024268E1,9.707555E4,1.0310988E2,6.1602867E1,9.665545E4,9.523534E4,-2.9591608E1,-5.3270794E1,-6.456898E1,1.0183961E5,9.992639E4,4.5073282E-2,8.770579E-3,2.8939417E-1,5.217173E-1,2.326E1,-2.3935017E1,9.532151E4,9.987236E4,-4.515412E0,1.0133684E5,4.154972E1,1.06291914E5,6.858045E-1,3.585666E1,7.928188E6,-8.338051E0,9.7350516E4,7.525275E-1,-8.696604E1,3.8263637E4,-3.960552E1,2.8793985E1,5.3552727E1,9.5260414E4,1.0035671E5,9.4636164E4,-1.8611696E-2,3.5327915E-2,1.0897652E-2,-1.6503977E-2,-1.5872067E-2,1.3918557E-3,-8.645452E-3,-3.6222746E-3,4.8754454E-2,-1.2592675E-2,-5.353845E-3,-1.2460445E-2,-2.070701E-2,2.8867735E-2,-1.7054165E-2,1.5647756E-3,1.3647469E-2,-2.6397422E-2,5.3327642E-3,4.0750522E-2,2.053321E-2,-6.756305E-3,-3.834974E-3,2.9043082E-2,-4.1451114E-3,-1.56639E-2,1.1815759E-2,-1.9520743E-2,-2.8200045E-2,1.0620738E-2,4.5708798E-2,5.5841585E-3,6.68887E-3,-3.8143129E-3,-1.6640255E-2,-2.8749628E-3,2.2891425E-2,4.3998025E-3,2.047487E-2,-1.1718905E-2,1.4107855E-2,-1.0177939E-2,-1.6138014E-4,3.989638E-2,-5.577275E-3,3.197831E-2,3.0923193E-2,9.151491E-3,4.204914E-2,4.4432E-3,-1.9845411E-2,1.2558212E-3,-8.3336225E-3,8.779081E-3,-1.5719103E-2,1.3289577E-2],"split_indices":[34,52,34,27,32,32,50,30,28,4,23,33,25,22,4,20,33,34,0,7,8,36,48,37,34,35,29,32,22,39,30,28,28,26,22,0,0,50,50,6,30,37,43,29,18,7,26,50,7,52,30,21,50,28,45,30,31,31,35,26,22,0,0,0,0,0,0,0,0,0,0,0,0,0,0,0,0,0,0,0,0,0,0,0,0,0,0,0,0,0,0,0,0,0,0,0,0,0,0,0,0,0,0,0,0,0,0,0,0,0,0,0,0,0,0,0,0],"split_type":[0,0,0,0,0,0,0,0,0,0,0,0,0,0,0,0,0,0,0,0,0,0,0,0,0,0,0,0,0,0,0,0,0,0,0,0,0,0,0,0,0,0,0,0,0,0,0,0,0,0,0,0,0,0,0,0,0,0,0,0,0,0,0,0,0,0,0,0,0,0,0,0,0,0,0,0,0,0,0,0,0,0,0,0,0,0,0,0,0,0,0,0,0,0,0,0,0,0,0,0,0,0,0,0,0,0,0,0,0,0,0,0,0,0,0,0,0],"sum_hessian":[1.0721015E4,4.440942E3,6.2800728E3,2.1825854E3,2.2583562E3,3.9909587E3,2.289114E3,2.1723188E3,1.0266697E1,1.6242606E3,6.340956E2,6.217279E2,3.3692307E3,1.0851302E3,1.2039839E3,4.7449448E2,1.6978243E3,8.291622E0,1.9750746E0,1.3972129E3,2.2704774E2,2.8138242E2,3.5271313E2,4.8508908E2,1.3663885E2,9.6354877E2,2.405682E3,1.19842896E2,9.652873E2,5.651604E2,6.3882355E2,1.0193756E1,4.6430072E2,4.3849866E2,1.2593257E3,6.4899054E0,1.8017166E0,1.3864126E1,1.3833488E3,9.490059E0,2.175577E2,2.7177084E1,2.5420532E2,3.295191E2,2.3194033E1,3.9199954E2,9.308954E1,1.4009821E1,1.2262903E2,6.814658E2,2.8208298E2,2.2649036E3,1.4077827E2,1.1003017E2,9.8127365E0,1.1533659E2,8.4995074E2,1.1918501E1,5.532419E2,1.8311801E2,4.5570554E2,1.1858099E0,9.007946E0,1.4498194E1,4.4980252E2,4.007538E2,3.774484E1,7.1729663E2,5.4202905E2,6.9243684E0,6.939758E0,1.186364E3,1.9698476E2,1.557174E0,7.932885E0,2.1691257E1,1.9586642E2,6.210219E0,2.0966866E1,2.4463423E2,9.571095E0,1.2611899E1,3.1690723E2,8.884211E0,1.4309823E1,2.7168915E2,1.2031037E2,7.6755325E1,1.6334217E1,1.225553E1,1.7542908E0,9.340933E0,1.132881E2,3.929659E2,2.884999E2,8.3460236E1,1.9862273E2,5.5825466E1,2.2090781E3,1.3063118E2,1.0147096E1,1.9701445E1,9.032872E1,2.588981E0,7.2237554E0,1.6829498E1,9.85071E1,6.839348E1,7.8155725E2,9.7514715E0,2.1670296E0,2.252698E1,5.307149E2,1.0112836E2,8.1989655E1,2.4910007E1,4.3079553E2],"tree_param":{"num_deleted":"0","num_feature":"55","num_nodes":"117","size_leaf_vector":"1"}},{"base_weights":[7.8086667E-3,-3.4165606E-2,3.1002188E-1,1.0155289E0,-3.3328004E-2,4.7127273E-2,1.0258396E0,1.338993E-1,-2.9734252E-2,5.1683333E-2,2.6257676E-1,6.8920664E-2,3.8614195E-2,4.515625E-1,-9.483683E-2,1.2925237E-2,-1.3757126E-2,2.832948E-2,-2.6328793E-2,2.0482248E-2,-1.6701099E-2],"categories":[],"categories_nodes":[],"categories_segments":[],"categories_sizes":[],"default_left":[0,0,0,0,0,0,0,0,0,0,0,0,0,0,0,0,0,0,0,0,0],"id":22,"left_children":[1,-1,3,5,-1,7,9,11,-1,-1,13,15,-1,17,19,-1,-1,-1,-1,-1,-1],"loss_changes":[2.2132314E3,0E0,5.080247E3,4.2694336E1,0E0,2.6495006E0,2.5032227E1,1.6668159E0,0E0,0E0,3.037446E0,2.5976186E0,0E0,3.5807748E0,2.0868435E0,0E0,0E0,0E0,0E0,0E0,0E0],"parents":[2147483647,0,0,2,2,3,3,5,5,6,6,7,7,10,10,11,11,13,13,14,14],"right_children":[2,-1,4,6,-1,8,10,12,-1,-1,14,16,-1,18,20,-1,-1,-1,-1,-1,-1],"split_conditions":[-5.090615E-4,-3.4165606E-2,5.0660834E-4,-4.9510685E-4,-3.3328004E-2,5.8305172E1,4.936283E-4,4.3324028E1,-2.9734252E-2,5.1683333E-2,3.0814232E4,3.003502E1,3.8614195E-2,6.346073E6,4.9015797E1,1.2925237E-2,-1.3757126E-2,2.832948E-2,-2.6328793E-2,2.0482248E-2,-1.6701099E-2],"split_indices":[12,0,12,12,0,7,12,7,0,0,45,7,0,51,33,0,0,0,0,0,0],"split_type":[0,0,0,0,0,0,0,0,0,0,0,0,0,0,0,0,0,0,0,0,0],"sum_hessian":[1.059441E4,3.2228733E3,7.371537E3,4.2797207E3,3.0918164E3,4.5144913E1,4.2345757E3,4.0465424E1,4.679489E0,4.191241E3,4.333449E1,3.7732723E1,2.7327025E0,2.8173876E1,1.5160615E1,2.4488085E1,1.32446375E1,2.5585787E1,2.5880902E0,4.646884E0,1.0513731E1],"tree_param":{"num_deleted":"0","num_feature":"55","num_nodes":"21","size_leaf_vector":"1"}},{"base_weights":[-8.335783E-3,-6.798814E-1,1.0497689E0,-3.4601185E-2,-3.3329006E-2,2.956967E-1,5.2884977E-2,-1.5137844E-1,4.3400937E-1,2.9208332E-1,-3.0667711E-2,8.26845E-2,6.385885E-1,-3.1807607E-1,4.772185E-2,-2.3506437E-1,5.7718E-1,2.0112115E-1,7.928403E-1,8.3194485E-5,-2.3632528E-2,-2.0090152E-2,2.0616101E-2,-5.6077247E-3,4.5912422E-2,2.9443368E-2,-1.4623736E-2,4.5218688E-2,1.0328179E-2],"categories":[],"categories_nodes":[],"categories_segments":[],"categories_sizes":[],"default_left":[0,0,0,0,0,0,0,0,0,0,0,0,0,0,0,0,0,0,0,0,0,0,0,0,0,0,0,0,0],"id":23,"left_children":[1,3,5,-1,-1,7,-1,9,11,13,-1,15,17,19,-1,21,23,25,27,-1,-1,-1,-1,-1,-1,-1,-1,-1,-1],"loss_changes":[7.5527266E3,5.891113E-1,2.43667E1,0E0,0E0,2.807416E0,0E0,2.4772584E0,2.3995976E0,2.8904247E0,0E0,2.2891781E0,1.2856503E0,2.0252034E-1,0E0,1.1430657E0,1.4315997E0,1.4971299E0,8.2625294E-1,0E0,0E0,0E0,0E0,0E0,0E0,0E0,0E0,0E0,0E0],"parents":[2147483647,0,0,1,1,2,2,5,5,7,7,8,8,9,9,11,11,12,12,13,13,15,15,16,16,17,17,18,18],"right_children":[2,4,6,-1,-1,8,-1,10,12,14,-1,16,18,20,-1,22,24,26,28,-1,-1,-1,-1,-1,-1,-1,-1,-1,-1],"split_conditions":[4.936283E-4,-4.9510685E-4,5.0660834E-4,-3.4601185E-2,-3.3329006E-2,3.5250245E6,5.2884977E-2,2.8731138E1,-2.990929E0,2.7064451E1,-3.0667711E-2,2.7519325E6,-1.8535503E1,9.96E4,4.772185E-2,2.6523995E-1,2.201461E1,-4.2519085E1,1.0150001E5,8.3194485E-5,-2.3632528E-2,-2.0090152E-2,2.0616101E-2,-5.6077247E-3,4.5912422E-2,2.9443368E-2,-1.4623736E-2,4.5218688E-2,1.0328179E-2],"split_indices":[12,12,12,0,0,52,0,33,30,34,0,53,28,0,0,49,4,28,0,0,0,0,0,0,0,0,0,0,0],"split_type":[0,0,0,0,0,0,0,0,0,0,0,0,0,0,0,0,0,0,0,0,0,0,0,0,0,0,0,0,0],"sum_hessian":[1.0627172E4,6.5013364E3,4.1258354E3,3.3720623E3,3.1292742E3,4.3338406E1,4.0824968E3,1.0217473E1,3.3120934E1,5.4008336E0,4.8166394E0,1.2705636E1,2.0415295E1,3.0817285E0,2.3191054E0,8.054609E0,4.6510267E0,5.922523E0,1.4492772E1,1.3266877E0,1.7550406E0,6.706621E0,1.3479887E0,1.7616721E0,2.8893547E0,3.2088125E0,2.7137103E0,1.1720491E1,2.7722807E0],"tree_param":{"num_deleted":"0","num_feature":"55","num_nodes":"29","size_leaf_vector":"1"}},{"base_weights":[-4.3146485E-3,-1.3347822E-1,8.5991636E-2,-2.2757414E-1,-1.0110877E-1,6.240438E-2,1.7205927E-1,-2.3424098E-1,5.8556736E-1,-2.3841901E-1,-8.78757E-2,-4.097895E-1,6.504845E-2,2.4447407E-1,1.1524954E-1,-1.0791931E-1,-2.5170675E-1,3.6043802E-3,7.293318E-1,-2.650322E-1,7.0943195E-1,-6.139528E-2,-1.5822062E-1,-4.8486742E-1,2.0871988E-1,5.4842215E-2,1.869697E-1,4.546937E-1,1.9972444E-1,-2.3362207E-1,1.3203546E-1,-2.3233043E-1,1.9500192E-1,-4.2993757E-1,-2.2687577E-1,4.447868E-2,-5.734114E-4,3.6569887E-1,-3.058735E-1,-1.8137349E-2,4.699989E-2,-6.692268E-2,5.0209355E-1,-1.22986786E-1,-3.3284566E-1,-5.455635E-1,9.782671E-3,-1.8741155E-2,3.1912684E-2,5.235729E-2,6.4464396E-1,-3.835325E-1,2.1343711E-1,6.2166743E-2,5.7377154E-1,-2.2115931E-1,2.189741E-1,1.2979758E-1,-5.11906E-1,-4.0246297E-2,1.7043175E-1,2.429869E-3,-1.8362507E-2,2.9859958E-2,2.4512925E-4,-4.821937E-3,-2.4537388E-2,-1.1610436E-2,2.5466928E-2,4.3569766E-2,-2.3128748E-2,-1.8200329E-2,-6.0035037E-3,2.7619256E-3,-4.159232E-3,3.1088978E-2,-2.2490053E-2,-8.974636E-3,3.5298772E-3,-1.9235851E-2,3.5981577E-2,-1.13036465E-2,-3.247929E-2,-3.7067692E-4,3.3615555E-3,1.0481431E-2,4.5823094E-2,2.4580408E-3,-3.101633E-2,1.8745268E-2,5.7571377E-3,1.2271854E-2,-2.9003814E-2,3.6679786E-2,1.1182875E-2,6.8500936E-3,-3.1142239E-2,-3.023831E-3,1.2703516E-2,-1.2029639E-2,2.9241366E-2,-2.9633021E-2,1.6679967E-2,-9.873772E-3,1.25005385E-2,6.9784694E-3,2.1337908E-2],"categories":[],"categories_nodes":[],"categories_segments":[],"categories_sizes":[],"default_left":[0,0,0,0,0,0,0,0,0,0,0,0,0,0,0,0,0,0,0,0,0,0,0,0,0,0,0,0,0,0,0,0,0,0,0,0,0,0,0,0,0,0,0,0,0,0,0,0,0,0,0,0,0,0,0,0,0,0,0,0,0,0,0,0,0,0,0,0,0,0,0,0,0,0,0,0,0,0,0,0,0,0,0,0,0,0,0,0,0,0,0,0,0,0,0,0,0,0,0,0,0,0,0,0,0,0,0],"id":24,"left_children":[1,3,5,7,9,11,13,15,17,19,21,23,25,27,29,31,33,-1,35,37,39,41,43,45,47,49,51,53,55,57,59,61,63,65,67,-1,-1,69,71,-1,-1,73,75,77,79,81,-1,-1,-1,83,85,87,89,91,93,95,97,99,101,103,105,-1,-1,-1,-1,-1,-1,-1,-1,-1,-1,-1,-1,-1,-1,-1,-1,-1,-1,-1,-1,-1,-1,-1,-1,-1,-1,-1,-1,-1,-1,-1,-1,-1,-1,-1,-1,-1,-1,-1,-1,-1,-1,-1,-1,-1,-1],"loss_changes":[1.2455026E2,1.33594055E1,1.2746922E1,6.2292976E0,5.9223785E0,6.1868877E0,5.530491E0,2.4336586E0,6.4314675E-1,7.4260426E0,5.550558E0,1.3833838E0,6.0963554E0,5.4888535E0,4.4761114E0,5.2171593E0,4.235733E0,0E0,8.712287E-1,7.3201466E0,2.3454247E0,6.7931128E0,4.9779015E0,1.1362133E0,1.163612E0,6.605152E0,5.79955E0,4.793442E0,4.024893E0,3.627109E0,4.801862E0,3.7222972E0,3.0933535E0,2.3581657E0,3.5007439E0,0E0,0E0,7.721715E0,2.8008614E0,0E0,0E0,4.2758408E0,2.6948805E0,7.4547434E0,7.7215557E0,6.2240744E-1,0E0,0E0,0E0,4.0116367E0,2.0446262E0,1.7872615E0,5.710474E0,3.1048236E0,4.26474E0,3.2451773E0,4.62344E0,2.8484373E0,1.5729394E0,6.115302E0,4.631195E0,0E0,0E0,0E0,0E0,0E0,0E0,0E0,0E0,0E0,0E0,0E0,0E0,0E0,0E0,0E0,0E0,0E0,0E0,0E0,0E0,0E0,0E0,0E0,0E0,0E0,0E0,0E0,0E0,0E0,0E0,0E0,0E0,0E0,0E0,0E0,0E0,0E0,0E0,0E0,0E0,0E0,0E0,0E0,0E0,0E0,0E0],"parents":[2147483647,0,0,1,1,2,2,3,3,4,4,5,5,6,6,7,7,8,8,9,9,10,10,11,11,12,12,13,13,14,14,15,15,16,16,18,18,19,19,20,20,21,21,22,22,23,23,24,24,25,25,26,26,27,27,28,28,29,29,30,30,31,31,32,32,33,33,34,34,37,37,38,38,41,41,42,42,43,43,44,44,45,45,49,49,50,50,51,51,52,52,53,53,54,54,55,55,56,56,57,57,58,58,59,59,60,60],"right_children":[2,4,6,8,10,12,14,16,18,20,22,24,26,28,30,32,34,-1,36,38,40,42,44,46,48,50,52,54,56,58,60,62,64,66,68,-1,-1,70,72,-1,-1,74,76,78,80,82,-1,-1,-1,84,86,88,90,92,94,96,98,100,102,104,106,-1,-1,-1,-1,-1,-1,-1,-1,-1,-1,-1,-1,-1,-1,-1,-1,-1,-1,-1,-1,-1,-1,-1,-1,-1,-1,-1,-1,-1,-1,-1,-1,-1,-1,-1,-1,-1,-1,-1,-1,-1,-1,-1,-1,-1,-1],"split_conditions":[5.8564766E1,3.1974243E1,1.3984459E2,7.525275E-1,7.234786E5,-9.001395E-2,3.3521158E-1,1.4362279E-1,3.14989E0,1.04256625E5,4.564603E-1,1.2625614E2,1.0310988E2,3.3693993E1,9.47424E4,9.958648E4,2.5293964E-1,3.6043802E-3,4.79018E4,9.6392805E4,-5.7811108E1,3.275376E6,1.8789065E6,1.0189091E5,6.414E1,1.07692266E5,9.5708E4,9.736881E4,1.8645609E6,9.445383E4,-4.3301796E1,9.684401E4,1.0120898E5,9.6624055E4,1.0517239E5,4.447868E-2,-5.734114E-4,6.3249225E5,2.9493284E1,-1.8137349E-2,4.699989E-2,4.1436535E1,3.256782E1,1.3980769E6,2.108613E1,3.378766E1,9.782671E-3,-1.8741155E-2,3.1912684E-2,-5.790531E1,2.244809E-1,9.510148E4,9.471285E1,9.717225E4,1.0114007E5,9.643858E4,9.524683E4,9.51471E4,9.7894984E-1,1.0107039E5,1.3602545E2,2.429869E-3,-1.8362507E-2,2.9859958E-2,2.4512925E-4,-4.821937E-3,-2.4537388E-2,-1.1610436E-2,2.5466928E-2,4.3569766E-2,-2.3128748E-2,-1.8200329E-2,-6.0035037E-3,2.7619256E-3,-4.159232E-3,3.1088978E-2,-2.2490053E-2,-8.974636E-3,3.5298772E-3,-1.9235851E-2,3.5981577E-2,-1.13036465E-2,-3.247929E-2,-3.7067692E-4,3.3615555E-3,1.0481431E-2,4.5823094E-2,2.4580408E-3,-3.101633E-2,1.8745268E-2,5.7571377E-3,1.2271854E-2,-2.9003814E-2,3.6679786E-2,1.1182875E-2,6.8500936E-3,-3.1142239E-2,-3.023831E-3,1.2703516E-2,-1.2029639E-2,2.9241366E-2,-2.9633021E-2,1.6679967E-2,-9.873772E-3,1.25005385E-2,6.9784694E-3,2.1337908E-2],"split_indices":[34,34,33,50,53,50,50,50,4,24,50,28,29,31,27,40,50,0,45,21,28,53,53,42,6,36,3,21,53,27,30,0,21,44,44,0,0,53,28,0,0,32,7,53,30,7,0,0,0,29,50,43,34,21,36,27,27,24,47,0,7,0,0,0,0,0,0,0,0,0,0,0,0,0,0,0,0,0,0,0,0,0,0,0,0,0,0,0,0,0,0,0,0,0,0,0,0,0,0,0,0,0,0,0,0,0,0],"split_type":[0,0,0,0,0,0,0,0,0,0,0,0,0,0,0,0,0,0,0,0,0,0,0,0,0,0,0,0,0,0,0,0,0,0,0,0,0,0,0,0,0,0,0,0,0,0,0,0,0,0,0,0,0,0,0,0,0,0,0,0,0,0,0,0,0,0,0,0,0,0,0,0,0,0,0,0,0,0,0,0,0,0,0,0,0,0,0,0,0,0,0,0,0,0,0,0,0,0,0,0,0,0,0,0,0,0,0],"sum_hessian":[1.0675934E4,4.392679E3,6.2832544E3,1.1227853E3,3.269894E3,4.9330522E3,1.3502021E3,1.1143607E3,8.4245615E0,2.859346E2,2.9839595E3,2.6611586E1,4.906441E3,5.92124E2,7.580781E2,1.3623262E2,9.7812805E2,2.1711938E0,6.2533674E0,2.7882626E2,7.1083283E0,2.1692476E3,8.14712E2,2.3923676E1,2.6879094E0,4.528779E3,3.7766202E2,1.0231583E2,4.898082E2,3.420745E1,7.2387067E2,9.673581E1,3.9496803E1,1.1761326E2,8.605148E2,4.976152E0,1.2772155E0,1.6472939E1,2.6235333E2,1.1566017E0,5.951727E0,2.1490483E3,2.0199297E1,6.7934576E2,1.3536624E2,2.214671E1,1.7769657E0,1.1936496E0,1.4942598E0,4.5108623E3,1.7916185E1,1.6146E1,3.61516E2,2.4168636E1,7.8147194E1,2.0963493E1,4.6884473E2,1.5065945E1,1.9141506E1,1.3191734E2,5.919533E2,3.1593046E1,6.514277E1,1.1989291E1,2.7507511E1,1.8537064E1,9.9076195E1,8.550059E2,5.5088577E0,1.0195867E1,6.2770715E0,1.9910075E2,6.325258E1,2.5218875E2,1.8968595E3,1.825128E1,1.9480181E0,5.259093E2,1.5343648E2,1.2961275E2,5.753502E0,6.2190456E0,1.5927665E1,8.989423E2,3.6119202E3,7.570932E0,1.0345254E1,5.9910173E0,1.0154983E1,1.3573305E2,2.2578296E2,1.9283691E1,4.884946E0,5.290238E1,2.524481E1,1.1430483E1,9.5330105E0,5.22316E1,4.1661313E2,8.565202E0,6.5007434E0,1.7745659E1,1.3958461E0,8.577409E1,4.614325E1,5.297183E2,6.223496E1],"tree_param":{"num_deleted":"0","num_feature":"55","num_nodes":"107","size_leaf_vector":"1"}},{"base_weights":[4.370183E-3,2.2808379E-1,-1.7405765E-1,3.6098745E-1,1.3668339E-1,-9.030375E-2,-3.2790238E-1,3.8333818E-1,1.6317388E-1,1.6460887E-1,5.486073E-2,-4.1529547E-2,-1.4676663E-1,-2.519515E-1,-3.940388E-1,4.7380027E-1,3.4228724E-1,3.2547966E-1,-5.0361496E-3,1.43375E-1,2.7692527E-1,1.5665807E-2,1.412517E-1,2.1592325E-2,-6.261492E-2,1.1433069E-1,-1.5576346E-1,-3.2733914E-1,-1.7947912E-1,-3.3810392E-1,-4.473199E-1,2.2666529E-1,5.038375E-1,1.439211E-1,3.6759934E-1,1.9890964E-1,6.914554E-1,-2.0484717E-1,2.7721724E-1,1.4930825E-1,-2.1238805E-1,3.4029222E-1,1.0758176E-1,-1.9224066E-1,4.264535E-2,3.5914385E-1,8.358559E-2,-1.3708907E-1,5.6292873E-2,-9.4116114E-2,-5.8288705E-3,5.555901E-1,1.4341999E-2,-1.9241247E-1,-8.7749995E-2,-3.7865534E-2,-3.4297234E-1,-4.7084887E-2,-2.068402E-1,-2.8481555E-1,-4.246399E-1,-5.319202E-1,-4.0014943E-1,2.1521918E-2,-2.77547E-2,2.6742402E-2,7.204439E-3,1.0356262E-2,-1.2444693E-2,1.965835E-2,9.781375E-3,-1.3494028E-3,2.3046093E-2,7.0212865E-3,3.939126E-2,-1.4081686E-2,1.9481143E-2,2.5657682E-2,-8.03339E-4,5.366882E-3,9.547426E-3,3.1828617E-3,-2.319389E-2,1.4002837E-2,3.0793667E-2,-1.8753617E-3,2.2774389E-2,1.0931712E-3,-1.7155644E-2,2.9881774E-3,-1.635284E-2,2.2299549E-2,-1.9242428E-2,3.143483E-2,2.586818E-3,1.624576E-3,-1.4078773E-2,-7.0399577E-3,4.9438886E-3,-2.3535646E-3,-9.428491E-3,2.0702891E-2,-1.4923115E-3,-2.8699037E-4,3.6367383E-2,2.7960747E-2,-3.0892405E-3,-2.1225058E-2,-8.9610275E-3,-2.8683988E-3,-2.0910883E-2,-1.93477E-2,1.18991835E-2,-6.1398298E-3,-1.8099768E-2,2.483344E-3,-1.8586066E-2,-2.1259364E-2,-8.726762E-3,-1.7298525E-2,-9.188521E-3,-2.1564936E-2,1.5743632E-2,-1.4860784E-2,-2.8110802E-2,-2.5606507E-3,-2.0550692E-2],"categories":[],"categories_nodes":[],"categories_segments":[],"categories_sizes":[],"default_left":[0,0,0,0,0,0,0,0,0,0,0,0,0,0,0,0,0,0,0,0,0,0,0,0,0,0,0,0,0,0,0,0,0,0,0,0,0,0,0,0,0,0,0,0,0,0,0,0,0,0,0,0,0,0,0,0,0,0,0,0,0,0,0,0,0,0,0,0,0,0,0,0,0,0,0,0,0,0,0,0,0,0,0,0,0,0,0,0,0,0,0,0,0,0,0,0,0,0,0,0,0,0,0,0,0,0,0,0,0,0,0,0,0,0,0,0,0,0,0,0,0,0,0,0,0,0,0],"id":25,"left_children":[1,3,5,7,9,11,13,15,17,19,21,23,25,27,29,31,33,35,37,39,41,43,45,47,49,51,53,55,57,59,61,63,65,67,69,71,73,75,77,79,81,83,85,87,89,91,93,95,97,99,101,103,105,107,109,111,113,115,117,119,121,123,125,-1,-1,-1,-1,-1,-1,-1,-1,-1,-1,-1,-1,-1,-1,-1,-1,-1,-1,-1,-1,-1,-1,-1,-1,-1,-1,-1,-1,-1,-1,-1,-1,-1,-1,-1,-1,-1,-1,-1,-1,-1,-1,-1,-1,-1,-1,-1,-1,-1,-1,-1,-1,-1,-1,-1,-1,-1,-1,-1,-1,-1,-1,-1,-1],"loss_changes":[4.163602E2,5.616957E1,7.473851E1,8.272629E0,6.260372E0,1.0344854E1,1.017337E1,6.125305E0,5.2743187E0,4.837761E0,2.3668988E0,2.6872067E0,4.1089287E0,5.1571655E0,3.10141E0,3.789627E0,5.8128357E0,4.41607E0,5.460995E0,3.6666565E0,3.441166E0,2.7142186E0,2.7121248E0,2.7941859E0,2.705865E0,2.5770593E0,4.1807365E0,2.099083E0,1.7615128E0,2.3532028E0,2.0053787E0,9.607282E0,5.144882E0,3.374548E0,4.4755554E0,4.4187913E0,1.2093687E0,2.6970577E0,2.785993E0,2.9407196E0,2.0192575E0,3.7347832E0,4.545547E0,1.8033133E0,2.727124E0,3.102972E0,2.98609E0,2.241205E0,3.5050626E0,4.314973E0,5.4670305E0,1.0451596E0,2.058432E0,3.2718773E0,5.915032E0,2.5031297E0,1.8096619E0,2.6894717E0,2.7820168E0,2.0070934E0,1.132679E0,1.2261963E0,1.3471756E0,0E0,0E0,0E0,0E0,0E0,0E0,0E0,0E0,0E0,0E0,0E0,0E0,0E0,0E0,0E0,0E0,0E0,0E0,0E0,0E0,0E0,0E0,0E0,0E0,0E0,0E0,0E0,0E0,0E0,0E0,0E0,0E0,0E0,0E0,0E0,0E0,0E0,0E0,0E0,0E0,0E0,0E0,0E0,0E0,0E0,0E0,0E0,0E0,0E0,0E0,0E0,0E0,0E0,0E0,0E0,0E0,0E0,0E0,0E0,0E0,0E0,0E0,0E0,0E0],"parents":[2147483647,0,0,1,1,2,2,3,3,4,4,5,5,6,6,7,7,8,8,9,9,10,10,11,11,12,12,13,13,14,14,15,15,16,16,17,17,18,18,19,19,20,20,21,21,22,22,23,23,24,24,25,25,26,26,27,27,28,28,29,29,30,30,31,31,32,32,33,33,34,34,35,35,36,36,37,37,38,38,39,39,40,40,41,41,42,42,43,43,44,44,45,45,46,46,47,47,48,48,49,49,50,50,51,51,52,52,53,53,54,54,55,55,56,56,57,57,58,58,59,59,60,60,61,61,62,62],"right_children":[2,4,6,8,10,12,14,16,18,20,22,24,26,28,30,32,34,36,38,40,42,44,46,48,50,52,54,56,58,60,62,64,66,68,70,72,74,76,78,80,82,84,86,88,90,92,94,96,98,100,102,104,106,108,110,112,114,116,118,120,122,124,126,-1,-1,-1,-1,-1,-1,-1,-1,-1,-1,-1,-1,-1,-1,-1,-1,-1,-1,-1,-1,-1,-1,-1,-1,-1,-1,-1,-1,-1,-1,-1,-1,-1,-1,-1,-1,-1,-1,-1,-1,-1,-1,-1,-1,-1,-1,-1,-1,-1,-1,-1,-1,-1,-1,-1,-1,-1,-1,-1,-1,-1,-1,-1,-1],"split_conditions":[5.894535E1,3.5965317E1,1.1136299E2,1.0227E5,1.495888E1,8.0578354E1,4.080273E1,7.3651342E0,5.006318E6,5.189136E-1,1.0149261E5,3.0917713E1,6.71683E0,5.0422995E6,1.715093E2,9.622044E4,7.955826E0,8.489992E0,6.3628445E6,3.9988922E1,1.01904125E5,3.8700848E1,1.02328E5,1.191E1,5.3868996E1,7.585346E1,5.597206E6,1.3140216E1,4.5450415E-5,1.02E2,9.657415E4,9.614263E4,4.345E1,8.643124E0,2.4982721E1,4.539323E-1,1.0241288E5,1.82642E1,3.315682E1,2.9905742E-1,1.5093414E1,1.0116495E5,1.0608145E5,2.6530285E6,1.01465234E5,5.7180374E1,3.76E0,9.760125E4,9.584483E4,4.8852802E1,9.578764E4,8.169187E1,1.7193599E-1,9.553899E4,6.666527E1,9.6656E4,9.534452E4,1.0027574E5,9.6528766E4,5.5557295E6,7.704865E-1,9.41619E4,9.67138E4,2.1521918E-2,-2.77547E-2,2.6742402E-2,7.204439E-3,1.0356262E-2,-1.2444693E-2,1.965835E-2,9.781375E-3,-1.3494028E-3,2.3046093E-2,7.0212865E-3,3.939126E-2,-1.4081686E-2,1.9481143E-2,2.5657682E-2,-8.03339E-4,5.366882E-3,9.547426E-3,3.1828617E-3,-2.319389E-2,1.4002837E-2,3.0793667E-2,-1.8753617E-3,2.2774389E-2,1.0931712E-3,-1.7155644E-2,2.9881774E-3,-1.635284E-2,2.2299549E-2,-1.9242428E-2,3.143483E-2,2.586818E-3,1.624576E-3,-1.4078773E-2,-7.0399577E-3,4.9438886E-3,-2.3535646E-3,-9.428491E-3,2.0702891E-2,-1.4923115E-3,-2.8699037E-4,3.6367383E-2,2.7960747E-2,-3.0892405E-3,-2.1225058E-2,-8.9610275E-3,-2.8683988E-3,-2.0910883E-2,-1.93477E-2,1.18991835E-2,-6.1398298E-3,-1.8099768E-2,2.483344E-3,-1.8586066E-2,-2.1259364E-2,-8.726762E-3,-1.7298525E-2,-9.188521E-3,-2.1564936E-2,1.5743632E-2,-1.4860784E-2,-2.8110802E-2,-2.5606507E-3,-2.0550692E-2],"split_indices":[34,33,34,1,4,34,4,46,51,50,22,7,4,51,33,40,46,29,51,7,22,32,2,6,32,33,51,46,49,6,2,38,6,30,7,50,19,4,34,29,46,41,26,51,44,32,6,41,21,32,1,34,50,22,32,2,43,40,21,51,50,21,2,0,0,0,0,0,0,0,0,0,0,0,0,0,0,0,0,0,0,0,0,0,0,0,0,0,0,0,0,0,0,0,0,0,0,0,0,0,0,0,0,0,0,0,0,0,0,0,0,0,0,0,0,0,0,0,0,0,0,0,0,0,0,0,0],"split_type":[0,0,0,0,0,0,0,0,0,0,0,0,0,0,0,0,0,0,0,0,0,0,0,0,0,0,0,0,0,0,0,0,0,0,0,0,0,0,0,0,0,0,0,0,0,0,0,0,0,0,0,0,0,0,0,0,0,0,0,0,0,0,0,0,0,0,0,0,0,0,0,0,0,0,0,0,0,0,0,0,0,0,0,0,0,0,0,0,0,0,0,0,0,0,0,0,0,0,0,0,0,0,0,0,0,0,0,0,0,0,0,0,0,0,0,0,0,0,0,0,0,0,0,0,0,0,0],"sum_hessian":[1.0428724E4,4.627041E3,5.801682E3,1.8842448E3,2.7427961E3,3.7576074E3,2.044075E3,1.6921167E3,1.9212813E2,2.0441356E3,6.986604E2,2.0170011E3,1.7406062E3,9.5368066E2,1.0903943E3,5.2489264E2,1.167224E3,9.73043E1,9.482382E1,1.7210422E3,3.2309348E2,4.8142355E2,2.1723683E2,5.050481E2,1.511953E3,5.7589573E1,1.6830166E3,4.6571494E2,4.8796573E2,5.355332E2,5.548611E2,5.7808918E1,4.6708374E2,1.328432E2,1.0343809E3,7.3446785E1,2.385752E1,5.568084E1,3.9142982E1,1.6933811E3,2.7661123E1,2.3438068E2,8.871281E1,5.459383E1,4.2682974E2,4.4367115E1,1.7286972E2,9.0096596E1,4.1495148E2,9.7206006E2,5.39893E2,9.797179E0,4.7792393E1,1.0924966E3,5.9052E2,2.403787E1,4.4167706E2,8.403922E1,4.039265E2,3.3409238E2,2.0144086E2,1.9494696E2,3.5991415E2,4.6212566E1,1.1596352E1,4.2956802E2,3.7515717E1,1.1483836E2,1.8004837E1,8.9938055E2,1.3500027E2,3.992331E1,3.3523476E1,3.9171162E0,1.9940403E1,4.977743E1,5.9034095E0,2.1276846E1,1.7866137E1,8.451271E2,8.4825397E2,1.3542837E1,1.4118285E1,1.9399437E2,4.038631E1,6.3234146E1,2.547866E1,2.2921215E1,3.1672613E1,4.0874222E2,1.8087511E1,4.0088127E1,4.278991E0,8.508246E0,1.6436147E2,4.1805492E1,4.8291107E1,7.331725E1,3.4163425E2,6.4987384E2,3.221862E2,2.8332165E1,5.1156082E2,2.521878E0,7.275301E0,5.08083E0,4.2711563E1,5.7080853E1,1.0354158E3,5.418755E2,4.8644505E1,1.0432596E1,1.3605273E1,3.5718597E1,4.0595847E2,6.539614E1,1.8643078E1,5.049211E1,3.5343442E2,2.0661818E2,1.2747418E2,2.0005627E2,1.3845941E0,2.3522982E1,1.7142398E2,1.1040366E1,3.4887378E2],"tree_param":{"num_deleted":"0","num_feature":"55","num_nodes":"127","size_leaf_vector":"1"}},{"base_weights":[-9.41873E-3,-6.7245746E-1,1.0136385E0,-3.437475E-2,-3.27976E-2,3.5181564E-1,5.1031478E-2,-1.8550637E-1,4.6507758E-1,2.7288002E-1,-2.8961813E-2,-2.3957847E-2,5.2604276E-1,-2.2960914E-2,4.3499943E-2,4.0785122E-1,4.994774E-2,2.5435043E-2,-1.7049974E-2],"categories":[],"categories_nodes":[],"categories_segments":[],"categories_sizes":[],"default_left":[0,0,0,0,0,0,0,0,0,0,0,0,0,0,0,0,0,0,0],"id":26,"left_children":[1,3,5,-1,-1,7,-1,9,11,13,-1,-1,15,-1,-1,17,-1,-1,-1],"loss_changes":[7.0895835E3,1.123291E0,1.8656738E1,0E0,0E0,2.7936816E0,0E0,1.6848826E0,2.3835573E0,2.4054627E0,0E0,0E0,1.5633154E0,0E0,0E0,2.4314365E0,0E0,0E0,0E0],"parents":[2147483647,0,0,1,1,2,2,5,5,7,7,8,8,9,9,12,12,15,15],"right_children":[2,4,6,-1,-1,8,-1,10,12,14,-1,-1,16,-1,-1,18,-1,-1,-1],"split_conditions":[4.936283E-4,-4.9510685E-4,5.0660834E-4,-3.437475E-2,-3.27976E-2,3.4259636E1,5.1031478E-2,2.8731138E1,-9.722479E1,2.7064451E1,-2.8961813E-2,-2.3957847E-2,6.1751877E1,-2.2960914E-2,4.3499943E-2,5.8128665E6,4.994774E-2,2.5435043E-2,-1.7049974E-2],"split_indices":[12,12,12,0,0,33,0,33,28,34,0,0,31,0,0,51,0,0,0],"split_type":[0,0,0,0,0,0,0,0,0,0,0,0,0,0,0,0,0,0,0],"sum_hessian":[1.0449574E4,6.3406016E3,4.108972E3,3.2965732E3,3.0440283E3,4.3487186E1,4.065485E3,7.459758E0,3.602743E1,3.588688E0,3.87107E0,1.7690282E0,3.42584E1,1.7158775E0,1.8728106E0,2.8898445E1,5.359957E0,2.5751162E1,3.1472836E0],"tree_param":{"num_deleted":"0","num_feature":"55","num_nodes":"19","size_leaf_vector":"1"}},{"base_weights":[1.7337861E-3,1.062284E0,-3.396206E-2,5.3391267E-2,5.5082995E-1,2.6148995E-2,6.97325E-1,4.4333574E-1,-4.4012472E-1,-5.895139E-2,7.617973E-1,4.1349407E-2,-1.00379065E-2,-2.8473174E-2,-2.509146E-4,1.726237E-2,-2.2323253E-2,8.0012006E-1,-3.2105257E-3,5.0561935E-2,2.8514806E-2],"categories":[],"categories_nodes":[],"categories_segments":[],"categories_sizes":[],"default_left":[0,0,0,0,0,0,0,0,0,0,0,0,0,0,0,0,0,0,0,0,0],"id":27,"left_children":[1,3,-1,-1,5,7,9,11,13,15,17,-1,-1,-1,-1,-1,-1,19,-1,-1,-1],"loss_changes":[7.6764424E3,1.1190918E1,0E0,0E0,3.5646286E0,2.3763354E0,1.8197556E0,1.7515337E0,3.2336748E-1,7.473927E-1,1.115387E0,0E0,0E0,0E0,0E0,0E0,0E0,9.854908E-1,0E0,0E0,0E0],"parents":[2147483647,0,0,1,1,4,4,5,5,6,6,7,7,8,8,9,9,10,10,17,17],"right_children":[2,4,-1,-1,6,8,10,12,14,16,18,-1,-1,-1,-1,-1,-1,20,-1,-1,-1],"split_conditions":[-4.9510685E-4,-5.090615E-4,-3.396206E-2,5.3391267E-2,4.18668E6,8.395655E0,1.0643632E4,5.3673645E1,1.3076562E1,5.15308E1,5.2812717E1,4.1349407E-2,-1.00379065E-2,-2.8473174E-2,-2.509146E-4,1.726237E-2,-2.2323253E-2,6.4186126E-2,-3.2105257E-3,5.0561935E-2,2.8514806E-2],"split_indices":[12,12,0,0,52,46,45,31,29,31,46,0,0,0,0,0,0,48,0,0,0],"split_type":[0,0,0,0,0,0,0,0,0,0,0,0,0,0,0,0,0,0,0,0,0],"sum_hessian":[1.0627128E4,4.1552236E3,6.4719043E3,4.1096104E3,4.5613544E1,1.021312E1,3.5400425E1,5.416256E0,4.796865E0,2.7875388E0,3.2612885E1,3.2164388E0,2.199817E0,3.4596627E0,1.3372024E0,1.417782E0,1.3697568E0,3.1196844E1,1.4160408E0,1.448798E1,1.6708864E1],"tree_param":{"num_deleted":"0","num_feature":"55","num_nodes":"21","size_leaf_vector":"1"}},{"base_weights":[8.843097E-3,-3.403498E-2,3.1342992E-1,9.686078E-1,-3.251291E-2,-5.8559183E-2,9.794162E-1,1.5012445E-1,-2.7589843E-1,4.933982E-2,2.9449987E-1,3.8030675E-1,-3.2551485E-1,3.826261E-2,-3.8149363E-1,3.711209E-1,-3.8776177E-1,1.008951E-2,4.5418058E-2,-3.1972695E-2,1.6756354E-2,-6.7936466E-3,-3.2991204E-2,6.903065E-3,3.1092165E-2,-2.6615983E-2,1.8005491E-3],"categories":[],"categories_nodes":[],"categories_segments":[],"categories_sizes":[],"default_left":[0,0,0,0,0,0,0,0,0,0,0,0,0,0,0,0,0,0,0,0,0,0,0,0,0,0,0],"id":28,"left_children":[1,-1,3,5,-1,7,9,11,13,-1,15,17,19,-1,21,23,25,-1,-1,-1,-1,-1,-1,-1,-1,-1,-1],"loss_changes":[2.176428E3,0E0,4.538842E3,4.756421E1,0E0,2.1051693E0,2.1114258E1,2.7361715E0,2.7811189E0,0E0,2.578301E0,1.3759205E0,1.9399416E0,0E0,1.3612738E0,2.390411E0,3.371591E-1,0E0,0E0,0E0,0E0,0E0,0E0,0E0,0E0,0E0,0E0],"parents":[2147483647,0,0,2,2,3,3,5,5,6,6,7,7,8,8,10,10,11,11,12,12,14,14,15,15,16,16],"right_children":[2,-1,4,6,-1,8,10,12,14,-1,16,18,20,-1,22,24,26,-1,-1,-1,-1,-1,-1,-1,-1,-1,-1],"split_conditions":[-5.090615E-4,-3.403498E-2,5.0660834E-4,-4.9510685E-4,-3.251291E-2,3.003502E1,4.936283E-4,6.2518253E0,0E0,4.933982E-2,6.251748E1,5.597206E6,3.33125E-1,3.826261E-2,3.238562E-1,-5.141416E0,2.760874E1,1.008951E-2,4.5418058E-2,-3.1972695E-2,1.6756354E-2,-6.7936466E-3,-3.2991204E-2,6.903065E-3,3.1092165E-2,-2.6615983E-2,1.8005491E-3],"split_indices":[12,0,12,12,0,7,12,30,50,0,31,51,49,0,50,28,4,0,0,0,0,0,0,0,0,0,0],"split_type":[0,0,0,0,0,0,0,0,0,0,0,0,0,0,0,0,0,0,0,0,0,0,0,0,0,0,0],"sum_hessian":[1.0360664E4,3.1739788E3,7.1866855E3,4.2781294E3,2.9085557E3,4.4502014E1,4.2336274E3,2.286086E1,2.1641155E1,4.188059E3,4.5568478E1,1.554055E1,7.32031E0,1.4175286E0,2.0223625E1,4.137763E1,4.190849E0,1.2647139E1,2.893412E0,4.9839797E0,2.3363304E0,1.1533621E1,8.690004E0,2.2247791E1,1.9129835E1,2.9338923E0,1.2569568E0],"tree_param":{"num_deleted":"0","num_feature":"55","num_nodes":"27","size_leaf_vector":"1"}},{"base_weights":[-6.9612884E-3,-6.6649693E-1,9.865082E-1,-3.4054704E-2,-3.2526083E-2,3.0283558E-1,4.9692124E-2,-2.4939092E-2,3.5422266E-1,-2.3728779E-2,4.006817E-1,2.21736E-1,6.536333E-1,2.5821408E-2,-1.6558474E-3,2.8182038E-3,3.726105E-2],"categories":[],"categories_nodes":[],"categories_segments":[],"categories_sizes":[],"default_left":[0,0,0,0,0,0,0,0,0,0,0,0,0,0,0,0,0],"id":29,"left_children":[1,3,5,-1,-1,7,-1,-1,9,-1,11,13,15,-1,-1,-1,-1],"loss_changes":[6.8109375E3,1.0136719E0,2.0495361E1,0E0,0E0,2.0492597E0,0E0,0E0,1.857625E0,0E0,1.7357502E0,1.9583268E0,8.715954E-1,0E0,0E0,0E0,0E0],"parents":[2147483647,0,0,1,1,2,2,5,5,8,8,10,10,11,11,12,12],"right_children":[2,4,6,-1,-1,8,-1,-1,10,-1,12,14,16,-1,-1,-1,-1],"split_conditions":[4.936283E-4,-4.9510685E-4,5.0660834E-4,-3.4054704E-2,-3.2526083E-2,2.7064451E1,4.9692124E-2,-2.4939092E-2,-9.722479E1,-2.3728779E-2,3.0814232E4,1.1284943E1,2.3673008E1,2.5821408E-2,-1.6558474E-3,2.8182038E-3,3.726105E-2],"split_indices":[12,12,12,0,0,34,0,0,28,0,45,46,7,0,0,0,0],"split_type":[0,0,0,0,0,0,0,0,0,0,0,0,0,0,0,0,0],"sum_hessian":[1.0392748E4,6.2463237E3,4.146425E3,3.2422043E3,3.0041194E3,4.4458942E1,4.101966E3,2.1538224E0,4.230512E1,1.7564427E0,4.0548676E1,2.4847435E1,1.57012415E1,1.1047076E1,1.3800359E1,2.302353E0,1.3398889E1],"tree_param":{"num_deleted":"0","num_feature":"55","num_nodes":"17","size_leaf_vector":"1"}}]},"name":"gbtree"},"learner_model_param":{"base_score":"5E-1","boost_from_average":"1","num_class":"3","num_feature":"55","num_target":"1"},"objective":{"name":"multi:softprob","softmax_multiclass_param":{"num_class":"3"}}},"version":[3,0,4]}